Unnamed: 0,seed,ovp,la_trees,la_layers,n_layers,n_trees,tree_depth,rmse,rmse_rescaled,weights_trees_1,weigths_trees_2
0,55,True,0.1,0,1,500,4,1.0074284,0.8908142,"[1.2457189e-30, -4.6643517e-31, 2.292335e-30, 1.814193e-31, 2.0924956e-30, -1.8315772e-31, 2.1007807e-30, 1.5889225e-30, 1.7212342e-30, -7.698511e-31, 1.9953593e-30, 2.0485808e-31, 9.969005e-31, 6.607421e-31, -5.397422e-31, -6.434797e-31, -2.2211525e-31, -6.402364e-31, -1.3544488e-31, -7.0263397e-31, 1.4037088e-30, -7.4275456e-32, 4.3101945e-31, -3.8571056e-31, -7.2494754e-31, 8.198698e-31, -2.763738e-31, 1.8623998e-30, -4.288042e-31, 9.613514e-31, 1.888578e-30, 2.0146207e-30, -3.2138747e-31, 4.068715e-31, -7.1709e-31, 2.322633e-30, 1.1376897e-30, 2.4154084e-30, -8.389126e-31, 4.300934e-31, 8.528113e-31, -7.098605e-31, 2.1949325e-30, -8.047756e-31, 1.4395487e-30, 2.0754408e-30, 2.3628266e-30, -8.053448e-31, 2.6594143e-30, -8.422816e-31, -2.0684396e-31, 1.8038207e-30, 1.0659843e-30, 1.15941415e-30, 1.3489912e-30, -8.417893e-31, 1.7887637e-30, -3.182032e-31, 2.6443155e-30, 2.3935749e-30, 1.6184272e-30, -6.500025e-31, 1.9449045e-30, 1.1217645e-30, 2.1868703e-30, -2.8060496e-31, 1.231495e-30, -1.7004805e-31, 9.2206905e-32, 2.158845e-30, 2.899377e-31, -4.982396e-31, 9.456219e-31, 2.0625316e-30, -7.96282e-31, -8.446721e-31, 2.1553466e-30, 2.116725e-30, -2.893239e-31, 1.2024241e-30, -8.162714e-31, -8.1015635e-31, -5.6709854e-31, 1.2302629e-31, 5.9405664e-32, 1.1041064e-30, 4.5740625e-31, 2.3780811e-30, 1.3786126e-30, -6.5881465e-31, 1.803436e-30, 4.3461238e-31, 7.535729e-31, 2.614303e-31, 6.6707955e-31, 2.8496026e-30, 2.239549e-30, 2.117325e-30, 5.905553e-31, 2.2403178e-31, -2.3999605e-30, 1.1041796e-30, 4.8155297e-31, -5.6421147e-31, -8.304851e-31, 2.172455e-30, 1.51333895e-30, 2.7538795e-30, 1.7250235e-30, -6.425698e-31, 2.2002696e-30, -8.487678e-31, 1.0215395e-30, 1.22374115e-30, 2.8539158e-30, 4.7354331e-32, -8.346414e-31, 1.8122292e-30, 6.1142267e-31, 4.7447965e-32, 1.5274784e-30, 2.6878807e-30, 3.1816795e-31, -1.8367178e-30, -8.0170285e-31, -8.468768e-31, 2.065885e-30, 2.5052796e-30, -8.694118e-31, 1.5564499e-30, -2.3536622e-31, -6.5292105e-31, 2.0918272e-31, 1.3087178e-30, -2.8135577e-31, 8.935944e-31, 1.0472313e-30, -5.016026e-31, -7.6338437e-32, 1.7224144e-30, 2.3742113e-31, 1.1155245e-30, -8.329567e-31, -5.440504e-31, -4.1530657e-31, 3.694771e-31, 2.1767268e-30, -4.221961e-31, 1.55427775e-30, -3.0278297e-31, 2.480274e-30, -8.428803e-31, -5.0742974e-31, -3.8968364e-31, -6.6906933e-31, 2.0251046e-30, 2.3657478e-30, 1.9102437e-31, -2.2441906e-31, -3.5399032e-31, -8.220284e-31, 2.0755032e-30, 9.680139e-31, 1.6817638e-30, -8.311033e-31, -4.096444e-32, 2.6721964e-32, 2.2633487e-30, -4.940016e-31, 2.1589054e-30, 1.1378181e-30, 1.9905609e-30, -7.5105075e-31, 1.4666174e-32, -7.976732e-31, -6.5056827e-31, 2.8301762e-30, 1.788471e-30, 3.8818792e-31, 8.24393e-31, -7.734534e-31, 2.7246223e-30, 1.2053345e-30, -2.1800535e-31, 2.9399922e-30, -1.285916e-31, 2.2187283e-30, 6.25639e-31, 2.8320952e-30, -5.209004e-31, -7.7920624e-31, -8.815542e-31, -6.8098386e-31, 4.614034e-31, 1.9905827e-30, -5.1576978e-31, 2.7100908e-30, -7.1640767e-31, 8.501502e-31, -3.991842e-31, -8.27872e-31, -2.0849699e-31, -3.3429802e-31, -8.306034e-31, 2.658595e-30, -6.5240914e-31, -7.0035206e-31, -4.2040347e-31, 1.5635677e-30, 1.0526741e-30, -3.211595e-31, 1.938523e-30, 1.9682508e-30, -8.0841615e-31, 2.3401379e-30, 1.9186473e-30, 2.5093372e-30, -4.1167937e-31, 1.8558577e-30, -8.510208e-31, 2.8661268e-30, -1.7089097e-31, 2.7215386e-30, 1.8169394e-30, 2.0136254e-30, 1.0209703e-30, 2.1632855e-31, 2.2410678e-30, 6.8556904e-31, 2.6980475e-30, -7.141846e-31, -4.072525e-31, 1.6794348e-30, -7.117281e-31, 8.7188e-31, -8.416437e-31, -1.3777047e-30, -3.0889688e-31, 1.6891417e-30, 1.3535157e-30, 2.4007127e-30, 2.6560272e-30, 5.470086e-31, 4.468356e-32, -5.586057e-31, -7.742629e-31, 9.885851e-31, -6.3450825e-31, 1.57754605e-30, 2.4552525e-31, 1.369713e-30, 2.326749e-30, -6.9336224e-31, -8.665688e-31, -2.2281326e-31, -6.838752e-31, 2.377282e-30, 2.4930858e-30, -7.4612553e-31, 3.3913282e-31, -4.7860553e-31, 2.5291297e-30, 2.6845596e-30, 7.1105197e-31, 2.5714727e-30, 4.414299e-31, 4.186704e-31, 2.804109e-31, 1.0432083e-30, 2.4013918e-30, 2.497678e-30, 3.127218e-31, -5.630664e-31, -3.737677e-31, -8.723819e-31, 5.675e-31, -6.429688e-31, 1.7919864e-30, 1.9982774e-30, 1.9074468e-30, -8.332022e-31, -1.4619329e-31, 1.0718175e-30, 1.927847e-30, 1.4503478e-30, 2.2925742e-30, 1.7015356e-30, 9.374821e-31, 2.7172773e-30, -7.2524517e-31, 9.617752e-31, 9.2223955e-31, 2.9380733e-30, 2.1750211e-30, -7.942348e-31, -8.534099e-31, -8.310003e-31, -6.788893e-31, 2.362931e-30, -7.0955373e-31, 2.0555268e-30, 6.606718e-31, -7.306644e-31, -4.5811624e-31, -3.588637e-31, -1.0256581e-31, -7.409582e-31, 2.5302271e-30, 4.253712e-31, -6.2599825e-30, -4.171188e-31, 4.868526e-31, 2.4327659e-30, -8.55003e-31, -7.983316e-31, 8.134284e-31, 6.693209e-31, 1.7435712e-31, 1.532888e-30, -7.599583e-31, 8.163534e-31, 1.1202266e-30, 2.5764038e-30, 7.35662e-31, -8.164305e-31, 7.3577136e-32, 2.7096856e-30, 1.2577491e-31, -1.6446333e-31, -4.4964963e-31, 4.2436907e-31, 2.3464285e-30, 8.016474e-31, 2.6215994e-30, 2.0637009e-30, -6.471887e-31, 2.9385753e-31, 5.929979e-32, -8.415151e-31, 1.9221669e-30, 8.7408814e-32, -7.1405757e-31, 1.9809295e-30, 2.4305988e-30, 2.7512344e-30, -5.9775468e-31, 1.4758145e-30, 6.574723e-31, -4.5791495e-31, -1.6006457e-31, 8.6725895e-31, -7.5877845e-31, 1.787252e-31, -6.3184726e-31, 1.6778152e-30, -6.6377773e-31, 1.9836604e-30, 1.0190952e-30, 1.4165352e-30, 1.7058691e-30, -7.464109e-31, 2.253349e-30, 4.1757147e-31, -5.5166626e-32, -1.9461286e-31, 8.893151e-31, -6.1918652e-31, -1.2044959e-32, 1.7011331e-31, -5.88151e-31, 2.856421e-31, 8.1734144e-32, 7.0482303e-31, -8.140687e-31, 5.793976e-31, 2.662912e-30, 1.34533015e-30, 7.8863375e-31, -3.533689e-31, 2.4796491e-30, -4.5758215e-31, 4.6179187e-31, 1.8045794e-30, -4.0629787e-31, -4.0455358e-32, 2.2718138e-30, 2.3989193e-30, 9.249732e-31, -7.2926786e-31, -3.4071053e-31, -5.1488707e-31, 2.5021964e-30, -6.9289195e-31, 2.7087056e-30, -1.6957887e-31, -4.8613815e-31, -2.2558686e-31, -4.947282e-31, 1.639163e-30, 2.5495638e-31, 9.088847e-31, 9.468415e-31, 9.577193e-31, -8.600239e-31, 2.5580516e-30, -8.450995e-31, 1.5253441e-34, 1.6916844e-30, -6.7058097e-31, 2.4312848e-31, -7.393206e-31, 7.242235e-31, -6.7468443e-31, 1.8363183e-30, 9.207342e-31, 2.033595e-30, -6.892119e-31, -8.206369e-31, -7.3645417e-31, -1.3806689e-31, -7.738625e-31, 1.1552051e-30, 4.2922344e-31, -8.4446e-31, 1.2741762e-30, 1.6601936e-32, -5.0621216e-31, 2.5318719e-30, 7.5649042e-31, -7.8122913e-31, -7.5315446e-31, 6.810167e-31, 6.308934e-31, -6.435259e-31, -2.6665276e-31, -8.304459e-31, -1.967305e-31, 7.938421e-31, -3.3195302e-31, 1.900353e-30, -5.0934316e-31, 2.7550488e-30, 2.1833839e-30, -8.479426e-31, 6.177955e-31, -5.609251e-31, 1.9133145e-30, 9.8161715e-31, -2.8404385e-31, 1.0632689e-30, -4.3206714e-32, 1.0128139e-31, -6.7409946e-31, -7.0575863e-31, 3.8737963e-31, 2.3530448e-30, -4.4456613e-31, 1.8432425e-30, 2.4443372e-30, 1.346362e-30, -5.745288e-31, 1.9804657e-30, 1.1541299e-30, -5.170022e-31, 1.5632127e-30, -5.2745894e-31, 9.058826e-31, 1.4836251e-30, -5.1553176e-31, 1.8510987e-30, -7.884061e-31, 2.2922033e-30, 1.877888e-30, 2.1316501e-30, 1.7472272e-30, -4.9252437e-31, 1.9444245e-30, 5.631874e-31, 1.926093e-30, -1.9646485e-30, -1.6139314e-31, 7.5274694e-31, -7.6381554e-31, -2.9412608e-32, -6.2082676e-31, 2.776927e-31, -3.3342312e-32, 1.8074042e-30, -7.7419835e-31, 6.621023e-31, -7.839341e-31, 1.9961436e-30, -8.911559e-34, 1.1694198e-30, 8.628427e-32, -4.7393685e-31, -7.06949e-31, 1.5361285e-30, 6.2648846e-31, -8.244191e-31]","[[-4.146304484615899e-30], [-1.5551904989627504e-30], [4.427673069377875e-30], [2.488230394249971e-30], [-4.351798200416479e-30], [-1.9853627506857146e-30], [-4.462406388376876e-30], [4.2634217139352174e-30], [-1.7756846511543995e-30], [-1.4593698418566015e-30], [4.398709640889999e-30], [-2.898887935116516e-30], [-3.9231610502761406e-30], [3.1787281891433274e-30], [2.1510421907052995e-30], [7.673975068495736e-31], [2.2676596938661963e-30], [1.4698135919461431e-30], [2.1067879317019265e-30], [-1.099088910730704e-30], [4.0869606397298905e-30], [2.183738236935003e-30], [-3.3755063196291705e-30], [2.1708512453471644e-30], [-1.335616711828021e-30], [-3.608703710131738e-30], [2.144252723414046e-30], [4.361246541889744e-30], [2.2536333191139925e-30], [3.5653164957615315e-30], [4.380144353310852e-30], [4.3923356403221e-30], [2.6936044917454113e-30], [-3.6264008246031415e-30], [-1.9196424602035576e-30], [4.330879667186534e-30], [-3.7868326697615596e-30], [-4.2416598340382185e-30], [5.125056157861964e-31], [2.9405523449661574e-30], [4.4830265341208085e-31], [1.4143368413556958e-30], [2.7630566476530108e-30], [3.7116483332016102e-31], [-4.027564132696965e-30], [-2.594743912208488e-30], [-3.280834073484001e-30], [-1.1426125764851539e-30], [4.5365298647950954e-30], [-4.687843259214863e-31], [-2.2926525845556395e-30], [-4.348184448663407e-30], [3.8998509032597866e-30], [-4.04582322750761e-30], [-4.1596328978423586e-30], [2.162383219142711e-31], [4.316806836897586e-30], [2.3297359518608042e-30], [-3.259815858333106e-30], [-4.185670944069005e-30], [4.245119737090655e-30], [-1.0260823420248621e-30], [4.3836234404310935e-30], [-4.002668855058414e-30], [-4.467449541260548e-30], [2.0236058136976266e-30], [3.940394737854676e-30], [-2.5774560578502666e-30], [-3.028415563594076e-30], [-2.6075146709149173e-30], [3.370520812988463e-31], [2.183168921511013e-30], [3.594786233176194e-30], [-4.32146480379238e-30], [-6.912782291027543e-31], [-3.0459879816247443e-32], [-3.828515511362622e-30], [-4.3168166170105845e-30], [2.5275353518386418e-30], [-3.920600165303213e-30], [5.757623522276741e-31], [1.2919659986441343e-30], [-1.9391366704384983e-30], [-2.654325865230199e-30], [2.8572577556623708e-30], [4.019072737664817e-30], [-3.3414831872971625e-30], [2.951947869321673e-30], [-4.1782926011277635e-30], [1.3625238715578913e-30], [-4.345200761882376e-30], [-2.8583467336289726e-30], [3.741607170305763e-30], [-3.0534866951875098e-30], [3.3312877956540626e-30], [-4.062503210227134e-30], [4.080436928201471e-30], [4.46248011538256e-30], [-3.603108733180016e-30], [3.0417953224137794e-30], [-3.45689830079649e-30], [-8.17734996138226e-31], [-3.700421539305212e-32], [1.3488317133595133e-30], [-1.98686286955646e-31], [4.468572749622646e-30], [-4.22676585041556e-30], [4.176945202483077e-30], [4.30567970141225e-30], [1.476389307344643e-30], [-4.4167302514067486e-30], [-3.2609960076415577e-31], [3.9019035985149665e-30], [4.022455904446032e-30], [4.580960918148832e-30], [2.7378617600143223e-30], [2.3220329843996398e-31], [4.349520562562326e-30], [3.6777543171690965e-30], [2.597144177633319e-30], [4.2406336744897246e-30], [-3.525890227155856e-30], [3.245375897648509e-30], [-2.9592754309069587e-30], [6.990052706882236e-31], [-1.2031648295638077e-30], [4.450276791309159e-30], [-4.143666487213558e-30], [6.875689801886216e-31], [4.225363908832995e-30], [1.950974368749019e-30], [-1.4004758821685397e-30], [-2.991601901712764e-30], [-4.036940627955508e-30], [-2.2083512078502605e-30], [-3.963072939108028e-30], [-3.8383020190507316e-30], [-1.6438635861786114e-30], [2.3335814170603102e-30], [4.3196543544130176e-30], [2.8928018836447948e-30], [-3.6526284545586884e-30], [2.6956751485542718e-31], [1.3624500505126597e-30], [-1.911776428166047e-30], [-3.462588445770855e-30], [2.6098978211420004e-30], [1.7244844430517917e-30], [-4.2431550628524644e-30], [1.9788213597222587e-30], [-3.613041190246724e-30], [-8.214749489648021e-31], [-2.190854209537141e-30], [-1.6098731796093303e-30], [-1.3299889150740243e-30], [-4.376218014100009e-30], [4.0266940787982606e-30], [-3.0351692958570643e-30], [2.548857502808885e-30], [2.3047938425273166e-30], [5.574895746627858e-31], [4.416185950502544e-30], [-6.271151394970186e-31], [4.298074158922882e-30], [4.875869164227054e-32], [-2.699650858527849e-30], [-2.7206991663341247e-30], [-4.3413820039145206e-30], [-1.8642179956018348e-30], [-2.7564528144296392e-30], [4.0356974251300786e-30], [-4.3941321718483486e-30], [-6.995170809285716e-31], [2.993264520922567e-30], [3.0626555511239237e-31], [-9.84323798587607e-31], [4.368029426412633e-30], [4.245420663644465e-30], [-3.2451434318856905e-30], [-3.509947138334975e-30], [6.3646723149283864e-31], [3.855734694312974e-30], [-3.917546513098421e-30], [2.2044615440631636e-30], [4.184800137853916e-30], [2.6366349573689677e-30], [-2.476079168086199e-30], [3.614263704371579e-30], [-4.201740798200678e-30], [-2.0074601636902123e-30], [3.395974967661169e-31], [1.0443197136999036e-30], [1.3267822605245292e-30], [-3.505586336412069e-30], [4.403528979649274e-30], [1.8568972048640097e-30], [4.350421085274604e-30], [-1.1910808416769026e-30], [-3.907259715014601e-30], [2.2648727378197188e-30], [3.244040677125297e-31], [-2.223877889552306e-30], [1.5505574525481935e-30], [5.463701504203915e-31], [4.0017969203687484e-30], [-1.276692283326386e-30], [-1.3166978355481469e-30], [-2.098840461415791e-30], [4.221821250978261e-30], [-3.8411438941932796e-30], [2.0894421489820967e-30], [4.35207091510587e-30], [-4.398578737839091e-30], [-8.424993707258692e-31], [-4.505210933707267e-30], [4.3913072238244525e-30], [3.758821673816493e-30], [-1.7998808387926294e-30], [4.3353134437987395e-30], [-9.933889289025042e-31], [-4.3305072705761934e-30], [-3.011714327936689e-30], [4.54472484717174e-30], [4.3525967842586536e-30], [-2.3794860701322376e-30], [4.054033256211945e-30], [2.9345695489182123e-30], [-4.095186467078301e-30], [2.3313859227513924e-31], [4.4664354187742066e-30], [9.541563817658441e-31], [2.0934749409613497e-30], [4.2921500435529296e-30], [1.1100511008487323e-30], [3.497767512227687e-30], [1.8823494317259802e-31], [2.3489523692707586e-30], [-9.876395390128584e-31], [-4.2963927318034655e-30], [-1.1773676186197579e-30], [4.362861765167322e-30], [-4.468627668718716e-30], [-3.378247760534384e-30], [2.4176288869859115e-30], [1.3991678860944927e-30], [-7.903956306454454e-31], [3.669426927108775e-30], [1.577790835470304e-30], [-4.261786178115257e-30], [2.992810121826313e-30], [-4.084320761536588e-30], [-4.240116833133555e-30], [1.228340815253335e-30], [-3.4696944501808975e-31], [-2.3384677119778083e-30], [1.5180292669117872e-30], [-4.473397730754805e-30], [-3.311395045814419e-30], [-6.900393520965357e-31], [3.1894784141200154e-30], [-2.0054665252712177e-30], [-3.896189003258105e-30], [4.3768258857387065e-30], [3.623715431268575e-30], [3.47049265786488e-30], [-3.277720612126639e-30], [3.4223981998766926e-30], [2.6892621215739257e-30], [3.740289864316458e-30], [3.143347878053634e-30], [-4.0983638753283474e-30], [3.428074426997943e-30], [1.6143007496113635e-30], [2.0041550497338923e-30], [4.325386629104915e-31], [3.53491125292271e-30], [-1.0687975497845904e-30], [-4.285933277109397e-30], [4.424526506099594e-30], [4.358645784148437e-30], [6.581637068841579e-31], [-2.393337531325039e-30], [3.871949745506861e-30], [-4.260466615176798e-30], [-4.156584511852258e-30], [-2.7210836000066176e-30], [-4.309659455086394e-30], [4.012544888396283e-30], [4.2590658020688104e-30], [-1.018061050693495e-30], [-3.677485740219821e-30], [-3.690151738869705e-30], [4.223445878210645e-30], [-4.190631342150379e-30], [7.242040139483827e-31], [-2.01476769485176e-31], [-6.418420148427644e-31], [-1.3657937206836866e-30], [-4.4508835344732796e-30], [1.0557476816995017e-30], [-3.732978101375247e-30], [-3.5090597811594265e-30], [-1.1014384888391276e-30], [2.067437647051088e-30], [-1.605000802544946e-30], [-2.9503358433887292e-30], [6.1843143358907616e-31], [-4.509902754839365e-30], [3.509290742289476e-30], [-7.381380794802051e-30], [-2.451608384967617e-30], [-3.341156305828086e-30], [3.752599641158269e-30], [-2.7455170494246174e-31], [-8.255572997858858e-31], [-3.969155417076923e-30], [-3.910492794677103e-30], [-3.0487141881231713e-30], [4.11910749499889e-30], [-7.132086748896612e-31], [3.582817631814766e-30], [-3.957224807692913e-30], [3.68843231977287e-30], [3.8843129368119734e-30], [2.172419119712291e-31], [-2.9845308800146015e-30], [-4.357357818498128e-30], [2.772706421838233e-30], [-2.0787175027624825e-30], [-1.8211365978419383e-30], [-3.2433724791165156e-30], [-2.8658890815420406e-30], [-3.7965849470541735e-30], [4.4981327650034516e-30], [2.5470854215651335e-30], [-1.6658231372056447e-30], [3.244422712789314e-30], [2.938175965586535e-30], [-2.674677057866663e-31], [4.384447603030342e-30], [-2.789999730490242e-30], [-1.5260236629324075e-30], [4.371847055905912e-30], [-2.9978732110941748e-30], [4.3230552006292685e-30], [1.3575518125725572e-30], [-4.1771502086978604e-30], [-2.16355448171387e-31], [2.2912690747244957e-30], [2.5608934364867286e-30], [-3.761651511896889e-30], [-8.841398945303018e-31], [3.323781558927452e-30], [1.2706585178433892e-30], [-4.2726368373292796e-30], [1.4353287254331321e-30], [2.4655676154825018e-30], [3.9673995106354385e-30], [4.205986871874944e-30], [4.284763801289651e-30], [6.997930399823706e-31], [-4.37520426777186e-30], [3.3607274404133444e-30], [2.4696972681962626e-30], [2.3928150475959856e-30], [3.975781443633638e-30], [1.940821482981645e-30], [2.64158181375542e-30], [3.4937422434122795e-30], [-1.508056466878959e-30], [3.200437030735217e-30], [3.2231283975252984e-30], [-3.549961342195158e-30], [1.7731990213298118e-31], [3.447597789492784e-30], [-4.422317329036433e-30], [4.128010783251566e-30], [3.333962656559246e-30], [-2.7452414195092366e-30], [-3.678989620672489e-30], [1.8246950543407475e-30], [3.3981329872101825e-30], [4.349189167194942e-30], [-1.8164141198171708e-30], [-2.58754480864586e-30], [-4.527931640836345e-30], [3.4594862691592606e-30], [-3.811205839829249e-30], [-9.514960029510631e-31], [-2.474758476673163e-30], [-1.791860769975387e-30], [-4.606735277482702e-30], [-1.4239048951736489e-30], [-4.423881394799863e-30], [2.391567707030441e-30], [2.1591147335903624e-30], [2.0630183525292846e-30], [-1.954394963270364e-30], [4.287626365132773e-30], [-2.8183490807292492e-30], [-3.856792451149618e-30], [-3.966868375267963e-30], [-3.906259886539566e-30], [3.066119732975797e-31], [3.0790622549167686e-30], [4.3590469098407116e-32], [-2.797454433544513e-30], [4.26922621100003e-30], [1.4751989547452263e-30], [3.353327280296952e-30], [-5.581464409060253e-31], [3.681649059091789e-30], [-1.052504445765809e-30], [4.3515800286649664e-30], [-3.7385113883834376e-30], [2.306758516765507e-30], [1.1840890012782117e-30], [-2.5918968648907963e-31], [1.6722915534798015e-30], [2.192403981289265e-30], [1.2481035083980034e-30], [4.1130013190638826e-30], [-3.177278475470345e-30], [-5.98667753029153e-32], [3.9132440156953154e-30], [-2.6477365140972295e-30], [-1.9512405006700452e-30], [-3.579461548423394e-30], [-3.4548557147927274e-31], [5.939324856258485e-31], [-1.2122474512346452e-30], [3.541357099705331e-30], [3.495415395051466e-30], [1.0252686178154489e-30], [-2.140461424994226e-30], [-2.706527312401063e-31], [2.7818733969836856e-30], [-3.56288952310505e-30], [-2.493276556399181e-30], [-4.203025378427257e-30], [-1.4933346696688087e-30], [-3.875384445960416e-30], [4.4908074603673194e-30], [-1.1166310010071211e-31], [-3.3025139508950866e-30], [-1.0755474264261082e-30], [-2.0633409081791502e-30], [-3.805087626832089e-30], [1.9184028308809545e-30], [3.685361740449426e-30], [2.7473287213181047e-30], [-2.5333943918413323e-30], [1.0227222149329236e-30], [1.2135972949075815e-30], [2.872927001319284e-30], [-3.9322298481334125e-30], [-1.7196498698857298e-30], [4.333679788769741e-30], [4.22022709255945e-30], [-4.134037213649814e-30], [1.7545520839130568e-30], [-4.3109624670643934e-30], [4.112591682792508e-30], [-1.7492540838541267e-30], [-4.170193915248338e-30], [-1.5628066679210501e-30], [-5.463089306746007e-31], [4.221851719791834e-30], [-1.6219790787109347e-30], [4.346934474990517e-30], [-7.440554804264253e-31], [3.545875888068988e-30], [2.001011307642053e-30], [4.4517125871290276e-30], [4.31605790593679e-30], [-2.276585175452216e-30], [-4.387207851845169e-30], [3.862932481321929e-30], [-4.361956728556737e-30], [-3.1879591111814646e-30], [2.3199007316867962e-30], [3.39679146603725e-31], [6.123055093489749e-31], [-2.162013408619942e-30], [-1.2026898358065274e-30], [3.3572566287733324e-30], [-2.286855046417384e-30], [-4.336000308657812e-30], [5.115306137518504e-31], [3.6485287064212125e-30], [-7.72490077515754e-31], [2.2381811167340153e-30], [-2.567768855924914e-30], [9.120544058990527e-31], [3.26654307144354e-30], [-1.8336005995425772e-30], [7.450729883364971e-31], [-4.2404963767495486e-30], [3.690542191073274e-30], [1.076746477683721e-31]]"
0,55,True,0.0562341325190349,0,1,500,4,1.0074284,0.8908142,"[6.038484e-26, -1.3163173e-25, 1.8841562e-25, -4.679969e-26, 1.6378976e-25, -9.6393946e-26, 1.6460995e-25, 1.0092235e-25, 1.41512e-25, -1.6975912e-25, 1.5433632e-25, -6.109647e-26, 2.7627622e-26, 1.4260308e-26, -1.4851173e-25, -1.452647e-25, -1.0746835e-25, -1.5611284e-25, -8.8640584e-26, -1.6205582e-25, 7.8378126e-26, -7.901673e-26, -3.669515e-26, -1.2878281e-25, -1.6544597e-25, 8.863692e-27, -1.104316e-25, 1.358174e-25, -1.3581122e-25, 4.972042e-26, 1.3555038e-25, 1.533042e-25, -1.2531768e-25, -4.3867837e-26, -1.6508464e-25, 1.9241008e-25, 6.3072425e-26, 2.0831544e-25, -1.7712132e-25, -2.709612e-26, 9.626368e-26, -1.6436926e-25, 2.0927723e-25, -1.7105804e-25, 8.935815e-26, 2.0963483e-25, 2.234952e-25, -1.738845e-25, 2.2571021e-25, -1.7750898e-25, -1.0735575e-25, 1.2464962e-25, 4.428053e-26, 4.757843e-26, 6.997132e-26, -1.7742031e-25, 1.3064232e-25, -1.2168125e-25, 1.7017527e-25, 2.079347e-25, 1.0303489e-25, -1.5079096e-25, 1.4602289e-25, 4.5062123e-26, 1.7219971e-25, -1.1019317e-25, 6.433348e-26, -1.0508428e-25, -7.654438e-26, 1.9706707e-25, 3.2667778e-26, -1.4195175e-25, 3.0339994e-26, 1.6560563e-25, -1.7255433e-25, -1.7771783e-25, 1.9528479e-25, 1.7028382e-25, -1.2044612e-25, 5.859858e-26, -1.7479634e-25, -1.7457975e-25, -1.496948e-25, -6.22105e-26, -7.599927e-26, 4.1484118e-26, -2.941781e-26, 1.9853017e-25, 7.677064e-26, -1.5775283e-25, 1.296443e-25, -2.3696657e-26, 1.179615e-27, -4.9783027e-26, 1.110917e-26, 2.4134457e-25, 1.9551407e-25, 1.6165812e-25, -1.9606925e-26, -5.7927776e-26, -2.8031189e-25, 1.237657e-25, -4.6694424e-26, -1.4172571e-25, -1.754889e-25, 1.6834708e-25, 8.9360265e-26, 2.3779172e-25, 1.2196103e-25, -1.5650742e-25, 1.7758982e-25, -1.7781044e-25, 3.7754532e-26, 5.800605e-26, 2.3980413e-25, -7.715704e-26, -1.7640605e-25, 1.2905721e-25, -1.8702076e-26, -7.756337e-26, 9.311361e-26, 2.2449478e-25, -5.0379908e-26, -1.7311031e-25, -1.7333303e-25, -1.7683884e-25, 1.614425e-25, 2.2269704e-25, -1.7782514e-25, 9.606361e-26, -9.949619e-26, -1.5715618e-25, -5.9243707e-26, 6.7930834e-26, -1.158072e-25, 1.2771229e-26, 3.9886293e-26, -1.3756774e-25, -8.803572e-26, 1.1870773e-25, -4.902655e-26, 6.764609e-26, -1.762935e-25, -8.4571627e-26, -1.2650622e-25, -4.720197e-26, 1.9727858e-25, -1.2800015e-25, 9.512887e-26, -1.1360863e-25, 2.285757e-25, -1.7707502e-25, -1.4275327e-25, -1.174021e-25, -1.5887921e-25, 1.547532e-25, 2.1048828e-25, -6.2988454e-26, -1.1135208e-25, -1.2562208e-25, -1.7537835e-25, 1.6030935e-25, 2.5796291e-26, 1.1464223e-25, -1.6998329e-25, -9.0087127e-26, -8.0019154e-26, 1.8593121e-25, -1.3979958e-25, 2.135563e-25, 4.5913554e-26, 1.5167986e-25, -1.6522338e-25, -8.5167716e-26, -1.6877932e-25, -1.5321943e-25, 2.4071353e-25, 1.3106965e-25, -3.9531382e-26, 1.324898e-26, -1.685716e-25, 2.34473e-25, 5.393267e-26, -1.0612743e-25, 2.4240429e-25, -9.9716456e-26, 1.2659889e-25, -1.4958294e-26, 2.416861e-25, -1.4374155e-25, -1.6470813e-25, -1.7798281e-25, -1.604708e-25, -3.5455763e-26, 1.5212162e-25, -1.4296228e-25, 2.3248572e-25, -1.6433052e-25, 8.333601e-27, -1.3107549e-25, -1.7569042e-25, -1.0597075e-25, -9.483108e-26, -1.7644931e-25, 2.3410337e-25, -1.5645646e-25, -1.6247671e-25, -1.3253267e-25, 9.732757e-26, 3.7601708e-26, -1.1936591e-25, 1.5314349e-25, 1.4546827e-25, -1.7425077e-25, 1.9397735e-25, 1.423659e-25, 2.298129e-25, -1.253886e-25, 1.2871467e-25, -1.7714196e-25, 2.427586e-25, -1.1095767e-25, 2.3904512e-25, 1.2931341e-25, 1.9624948e-25, 2.9040903e-26, -5.6345056e-26, 1.9493967e-25, 1.2967437e-26, 2.2835006e-25, -1.6245672e-25, -1.3092865e-25, 1.1273383e-25, -1.6337307e-25, 2.5010504e-26, -1.7739024e-25, -1.6697703e-25, -1.2853186e-25, 1.139453e-25, 7.0414316e-26, 2.0410077e-25, 2.2548766e-25, -2.0127244e-26, -6.435855e-26, -1.4334878e-25, -1.7012551e-25, 4.0850358e-26, -1.5556209e-25, 9.9609676e-26, -4.6235532e-26, 7.771166e-26, 1.9783422e-25, -1.6144412e-25, -1.760975e-25, -1.075927e-25, -1.6173547e-25, 1.9502689e-25, 2.1635526e-25, -1.6428884e-25, -4.6744535e-26, -1.3914201e-25, 2.282991e-25, 2.3273845e-25, -4.463661e-27, 2.2673033e-25, -3.0015362e-26, -3.9637706e-26, -3.3024158e-26, 3.5858132e-26, 2.1732684e-25, 2.2085566e-25, -5.3959725e-26, -1.469636e-25, -1.2468251e-25, -1.7634348e-25, -2.1725226e-26, -1.520512e-25, 1.3112585e-25, 1.5594988e-25, 1.4086425e-25, -1.7663046e-25, -9.936867e-26, 4.0469224e-26, 1.4773202e-25, 8.619918e-26, 1.8679986e-25, 1.1493144e-25, 1.9524508e-26, 2.361567e-25, -1.6418174e-25, 2.844028e-26, 2.2600008e-26, 2.4426045e-25, 1.8210633e-25, -1.723295e-25, -1.7659567e-25, -1.7625502e-25, -1.6044328e-25, 1.9318344e-25, -1.625622e-25, 1.8857724e-25, -1.0694503e-26, -1.656806e-25, -1.368312e-25, -1.074058e-25, -1.0001478e-25, -1.6166119e-25, 2.139076e-25, -3.946323e-26, -3.9483405e-25, -1.3345856e-25, -2.7710255e-26, 2.245682e-25, -1.773802e-25, -1.7302627e-25, 4.5592185e-27, -1.6570271e-26, -6.581236e-26, 9.741346e-26, -1.6686252e-25, 1.1742773e-26, 4.311518e-26, 2.317169e-25, -4.315605e-27, -1.7135768e-25, -7.807814e-26, 2.3249669e-25, -6.976385e-26, -8.995661e-26, -1.3151573e-25, -2.4705384e-26, 1.9732731e-25, 4.8490136e-27, 2.2150605e-25, 2.0652641e-25, -1.5765039e-25, -5.326031e-26, -7.9568856e-26, -1.7740687e-25, 1.407818e-25, -7.28216e-26, -1.6472536e-25, 1.5046648e-25, 2.0088766e-25, 2.3552273e-25, -1.4878221e-25, 8.8798726e-26, -2.2378332e-26, -1.4040172e-25, -1.0393058e-25, 1.9043367e-26, -1.6830275e-25, -7.0249216e-26, -1.5294401e-25, 1.1384195e-25, -1.5916319e-25, 2.08764e-25, 3.1299357e-26, 7.9350415e-26, 1.1385848e-25, -1.6471773e-25, 1.8391266e-25, -3.7786083e-26, -8.3289605e-26, -1.047678e-25, 1.25664864e-26, -1.5443597e-25, -8.5319664e-26, -6.9391866e-26, -1.4912666e-25, -5.3334917e-26, -8.155229e-26, 5.8252844e-27, -1.6928925e-25, -1.4379192e-26, 2.2749755e-25, 7.108295e-26, 1.889088e-26, -1.2649023e-25, 2.2880477e-25, -1.3261812e-25, -3.3033806e-26, 1.270491e-25, -1.2493423e-25, -8.70332e-26, 1.8329055e-25, 2.264945e-25, 2.2982723e-26, -1.6460806e-25, -1.2493641e-25, -1.4220359e-25, 2.2371592e-25, -1.6259425e-25, 2.3298065e-25, -1.013884e-25, -1.4093431e-25, -1.0498635e-25, -1.40925e-25, 1.1177529e-25, -4.4304348e-26, 1.9048194e-26, 2.0252309e-26, 2.4612473e-26, -1.7742369e-25, 1.810286e-25, -1.7762872e-25, -8.572232e-26, 1.2551886e-25, -1.5974647e-25, -5.992597e-26, -1.6101747e-25, 1.749744e-27, -1.5759228e-25, 1.2807031e-25, 2.0188729e-26, 1.6644059e-25, -1.6043419e-25, -1.7378455e-25, -1.6608033e-25, -9.198222e-26, -1.7090888e-25, 5.0410406e-26, -3.1749565e-26, -1.7771828e-25, 8.205015e-26, -7.8585664e-26, -1.4244511e-25, 2.2880634e-25, 1.1341359e-26, -1.6925777e-25, -1.6878988e-25, -5.613796e-27, -1.0241648e-26, -1.5099541e-25, -1.1073451e-25, -1.7550964e-25, -1.09608e-25, 7.889522e-27, -1.2510072e-25, 1.4747629e-25, -1.3855054e-25, 2.3275945e-25, 1.7839515e-25, -1.763828e-25, -1.1548411e-26, -1.3355432e-25, 1.5536222e-25, 2.8906048e-26, -1.01266956e-25, 4.4569187e-26, -9.0671974e-26, -6.3658246e-26, -1.5547581e-25, -1.630205e-25, -2.4159215e-26, 2.130605e-25, -1.2925668e-25, 1.288757e-25, 2.1160035e-25, 6.944746e-26, -1.49749e-25, 1.536699e-25, 5.008263e-26, -1.4161543e-25, 1.0154516e-25, -1.4077022e-25, 6.4551147e-27, 8.686205e-26, -1.3997081e-25, 1.3144501e-25, -1.7157844e-25, 2.185251e-25, 1.5061607e-25, 1.644908e-25, 1.224911e-25, -1.4395237e-25, 1.4818062e-25, -3.521866e-26, 1.4609279e-25, -1.384951e-25, -9.996535e-26, 1.385375e-27, -1.6683072e-25, -7.587068e-26, -1.5186934e-25, -5.631115e-26, -7.6146654e-26, 1.2906259e-25, -1.6637075e-25, -9.971907e-27, -1.7132136e-25, 1.561316e-25, -8.2316354e-26, 2.8479345e-26, -7.856495e-26, -1.3702597e-25, -1.5814058e-25, 9.764133e-26, -1.7043132e-26, -1.7140916e-25]","[[1.3271885232587722e-26], [5.970056189881863e-26], [9.211567000715851e-26], [-5.353949659928431e-26], [-6.445698023792126e-26], [6.490686514697847e-26], [-7.371544625204766e-26], [1.4983140240165868e-26], [-1.211258572333382e-25], [6.124476867636843e-27], [5.855212216926074e-26], [5.47488142040123e-26], [2.47090556444423e-26], [-2.6183331905711395e-26], [-2.927867726786683e-26], [-6.631496953684633e-26], [-5.72856861046141e-26], [-3.625981278218497e-26], [-6.334331201795131e-26], [3.5905044160477196e-26], [7.494826482432904e-27], [-6.159798191705311e-26], [4.734051359100489e-26], [-4.804024245839966e-26], [2.2341603949188356e-26], [3.108841662908116e-26], [-5.783833247252799e-26], [4.897468209700097e-26], [-4.0011376402431575e-26], [-6.581935688793354e-27], [4.752168042826955e-26], [5.770471299373036e-26], [-3.7633019321460534e-26], [4.574902061108852e-26], [5.657184633370279e-27], [9.378620007050463e-26], [-1.3576094437691939e-28], [-1.1149986831904032e-25], [1.0842906623772418e-27], [-4.5802564545030396e-26], [8.783333242019043e-26], [-2.255698762821698e-26], [1.5297637512662108e-25], [-3.236232530191203e-26], [-1.8340501437907384e-26], [-1.4793626884745418e-25], [-1.518988527598474e-25], [1.8474350102368397e-27], [1.398470302803334e-25], [-3.7910182210873234e-27], [5.822187294686095e-26], [-3.7401537949584743e-26], [-1.518077763031493e-26], [1.5470206382357445e-26], [3.3711666487688726e-27], [-3.029807314298896e-27], [4.6010284563624314e-26], [-4.9809768402375186e-26], [-1.4636620145298312e-25], [-1.10350300764907e-25], [2.3435285638567424e-26], [5.292268749008716e-26], [6.127062929328968e-26], [1.6000955697175635e-26], [-7.906111903544709e-26], [-6.02551865819714e-26], [-6.0139974371210245e-28], [5.275249074978573e-26], [5.23022668770583e-26], [-1.5175364072352852e-25], [-4.1624482938555836e-26], [-3.561881091139841e-26], [-1.8953210627438917e-26], [-6.434368009040889e-26], [1.9525501480785562e-26], [1.1870551064253365e-27], [-8.943544112596026e-26], [-6.959478200981913e-26], [-4.650317779945563e-26], [4.654337118702301e-27], [-1.3135578696331682e-26], [4.495275334967337e-27], [3.3199248174081214e-26], [5.626544243513045e-26], [-5.428402105644157e-26], [-1.8726006360783622e-26], [4.571910860793625e-26], [1.5741269466450282e-25], [5.312968181827804e-27], [-3.587700262048692e-26], [-4.1958420701985117e-26], [4.4378174491552795e-26], [-3.5662928573820476e-26], [5.115068402983118e-26], [-2.92268805375705e-26], [-1.7586996908679829e-25], [9.320988171245828e-26], [7.522032168827318e-26], [4.244184760695378e-26], [-5.24359603115658e-26], [-2.359854225179566e-25], [-1.0695005141841991e-25], [-2.3686870637574707e-26], [-5.546274564918896e-26], [2.1094736873520638e-26], [7.522467274920354e-26], [-1.0137525922362849e-26], [1.6194610572348495e-25], [3.6454257750858215e-26], [-3.5976821258388575e-26], [-8.094629322072318e-26], [-8.778363264241755e-27], [-1.92429244171132e-26], [-7.199143850674976e-27], [1.612207111432793e-25], [-5.598262963763289e-26], [-1.3699014894166012e-26], [4.23284889111711e-26], [-4.202136009256769e-26], [-5.865056338206618e-26], [7.093186888854568e-27], [-1.7257627759227426e-25], [-5.0182381920575674e-26], [-1.3136410081770075e-25], [-1.7476720317105753e-26], [-1.504024021115706e-26], [7.08332320012579e-26], [-1.317370964404022e-25], [2.4304463985445206e-26], [1.6953656233137646e-26], [-6.425247421121853e-26], [3.5284669769767e-26], [5.339568355847702e-26], [-1.5887732779454037e-28], [5.601295764165315e-26], [3.258285814723997e-26], [1.6107827860905616e-26], [5.30467728452881e-26], [-6.040505782801175e-26], [3.081906685226685e-26], [-5.239451429916259e-26], [-6.56876772057759e-27], [-1.2595739762547962e-26], [5.562539890708421e-26], [5.45054752666549e-26], [4.7577815893544596e-26], [1.5375768022348428e-25], [-5.928919558864916e-26], [-1.4982026282286035e-26], [-6.001887960002695e-26], [-1.4939508220238578e-25], [-8.128771745903229e-27], [3.3492325407810375e-26], [6.478658851083555e-26], [3.462770271011345e-26], [-5.731468906883261e-26], [1.127291478024559e-25], [5.279063340714833e-26], [-5.026798873623171e-26], [-4.713730178922479e-26], [-1.0566623884344303e-26], [6.478224361288102e-26], [-3.600143310233389e-26], [2.904065389715594e-26], [-4.192772291941554e-26], [5.559789354599045e-26], [5.604032741727882e-26], [-8.691240510607894e-26], [4.5253859400154695e-26], [-1.5013233434807303e-25], [-1.667555194916813e-26], [-5.66057188191927e-26], [4.0680965236568663e-26], [-5.098778733439095e-26], [-4.168650712722884e-26], [5.407664308300577e-26], [1.6682044027899065e-25], [5.167034923263343e-26], [4.8564631582169506e-26], [2.811131412104737e-26], [-3.401913349959037e-26], [1.6809549834681234e-25], [7.337637472975862e-27], [-5.932275299200016e-26], [1.8211105446440597e-25], [-5.322778560815721e-26], [-1.151506426326933e-25], [-4.1055828240944195e-26], [-1.6967527859117892e-25], [3.717920243382886e-26], [-5.264326432929173e-26], [2.470045983391451e-26], [-3.3071471196362876e-26], [4.633426295812518e-26], [5.71730207436114e-26], [-4.381473058999869e-26], [1.486517287106347e-25], [2.825837505011287e-26], [3.378870599658015e-26], [-4.348801891572075e-26], [-1.5912076341358097e-26], [5.940631678117119e-26], [-6.734016207591508e-26], [-4.322916545710335e-27], [1.5396963728795585e-25], [4.0496279340109616e-26], [2.7413144486535576e-26], [4.6871914805864053e-26], [6.985193833896953e-27], [1.733579308972714e-26], [-5.549540325806994e-26], [6.956162519989656e-26], [-5.242531685232114e-26], [8.6432900935221e-27], [-1.0066596079552604e-25], [5.1036280709646665e-26], [1.492906444141055e-25], [5.75642341228428e-26], [4.6476991315187784e-26], [-1.3345537415892957e-26], [-1.6842877975331657e-25], [4.036011147080957e-26], [1.599527528236046e-25], [3.904773350289753e-26], [-1.4780307461398827e-25], [-2.7248639254405796e-26], [-5.33404756210632e-26], [-9.289826316596851e-26], [2.5767776312726895e-26], [1.4275159148145387e-25], [-3.942121600068893e-26], [-4.796594778486498e-26], [2.2021498984991642e-26], [-3.329032771226722e-26], [-2.1558075558797364e-26], [-5.6119703464378776e-27], [1.285077833913152e-25], [-9.733458886682607e-26], [-2.3080584809593694e-26], [-7.130379985717387e-26], [1.08695628038351e-25], [-1.387785674880181e-25], [4.29450052790167e-26], [-5.80765869548322e-26], [-5.28548577781898e-26], [2.569286534161001e-26], [-1.33987223564932e-26], [-3.276734066549689e-26], [-1.6446161366839966e-26], [-5.065911891528951e-26], [-6.26814122665242e-27], [-9.84826218399797e-26], [-3.32839459508035e-26], [-3.237604408609189e-26], [5.616528175207067e-26], [-2.345949534834035e-26], [-1.0086911096754792e-25], [-1.6200310092388717e-25], [4.1455139770405756e-26], [-5.0476090859326594e-26], [4.2410126770397744e-26], [-1.433678644117545e-25], [1.4902977797351023e-25], [-3.737734826948324e-26], [1.6591228881375825e-25], [4.6012463175577405e-26], [-4.754624296840829e-26], [-4.8294702485627924e-26], [-1.6488117365492453e-26], [1.6026710156838354e-25], [-1.2879237728882532e-25], [-4.8294499107425796e-26], [-4.4703462518415844e-26], [-5.381602316144338e-26], [3.455615980528331e-26], [-4.3087890791962767e-26], [5.240852274320608e-26], [-4.9009126968870347e-26], [6.490806692726377e-26], [5.711234624664342e-26], [-4.093881393753408e-28], [5.817963807355252e-26], [-1.607100099888102e-26], [-4.5663022446467785e-26], [-1.1232650518456252e-26], [-1.526948380651187e-25], [-2.8527114692320797e-26], [-3.072655442220222e-26], [1.556060059763204e-25], [3.2839416667735636e-26], [2.0875656949742746e-26], [2.4450125918999101e-26], [1.7900841522036515e-25], [-7.91858946439401e-26], [-1.9124197769389527e-26], [-2.6937344264146687e-26], [1.7993451173044738e-27], [3.186932729549174e-26], [-9.811623909033529e-26], [-3.63129807746017e-26], [-7.977645563911118e-26], [3.964847881561453e-26], [2.810786593607494e-26], [-4.457300464621492e-26], [6.609543817508947e-26], [4.6670114325547203e-26], [-4.905206133993458e-26], [-1.2361848513051359e-25], [-4.670757289259356e-26], [-3.6238514770339166e-25], [3.5483823251968285e-26], [4.530879924812026e-26], [1.364041331411578e-25], [-2.056565772515022e-26], [1.3976630762301633e-26], [3.5859490524688593e-26], [4.044007608210053e-26], [5.2935783813709e-26], [2.3000919102630105e-26], [3.5391039650967486e-26], [-2.95642634044843e-26], [1.572356785914543e-26], [1.6036935766322281e-25], [-3.8095375012093644e-26], [-3.64109936605875e-26], [5.265337160963987e-26], [-1.486034602839965e-25], [-5.664209886547019e-26], [6.280749057403159e-26], [5.306381347343604e-26], [4.4385603958906263e-26], [-1.5713145342583988e-25], [3.441442676881596e-26], [1.333072624424864e-25], [1.4903780216803052e-25], [2.869147817600667e-26], [-5.056844921499567e-26], [-5.319610174945611e-26], [2.5925994539146217e-27], [4.8319187988568885e-26], [5.620325800908607e-26], [1.7094799164670031e-26], [5.371167781780044e-26], [-1.5949591607782014e-25], [1.5384949623728102e-25], [-4.884608852498621e-26], [-1.2123496347580368e-26], [4.104363941551216e-27], [-3.452567156389168e-26], [-5.483106527933323e-26], [2.775857003689714e-26], [2.762689805845927e-26], [-4.904219749713141e-26], [-4.40551944991351e-26], [-3.163675507689545e-26], [-3.1993893362806796e-26], [1.4404697504353664e-25], [-2.3678173137945854e-26], [-6.762438850599181e-28], [3.216195155049798e-26], [-4.115098458763648e-26], [-8.606332576410079e-26], [-4.757538151809489e-26], [-5.847664420436823e-26], [-5.58829681556147e-26], [-3.293463464418614e-26], [-2.471647432658808e-26], [-5.655708677698098e-26], [-4.505113447346454e-26], [4.4740212343242663e-26], [-5.0875405470276066e-26], [-4.875913201762515e-26], [3.2938548133833136e-26], [-4.328580551602382e-26], [-4.0891775987537334e-26], [-1.408960057430994e-25], [-8.830380128330727e-28], [-2.382845730336628e-26], [3.3492479482205926e-26], [-1.4802534849998593e-25], [-5.194621943786746e-26], [-4.6495757576565894e-26], [3.6917815221776623e-26], [5.687409176433921e-26], [5.6972520651193e-26], [-9.680979298665197e-26], [1.4692403704653918e-25], [2.5912013058121944e-26], [3.4688263192028717e-26], [4.3712172509344134e-26], [4.590200724140691e-26], [-1.3890813789170066e-25], [2.4142353069422288e-26], [-1.494524718332406e-25], [-5.703319514816097e-26], [-3.7213222060366515e-26], [-6.236225254874419e-26], [4.336148685911846e-26], [2.4889769502984042e-26], [5.141375989725865e-26], [2.852031692998909e-26], [2.924757889186882e-26], [2.6220439183135893e-26], [2.4871459301816764e-26], [1.535048379774093e-25], [5.902967961013089e-27], [5.468849099666618e-26], [4.091578385985209e-26], [-3.023306337771617e-26], [-4.8835127672486715e-26], [5.120808290514974e-26], [-3.5268544343528636e-26], [4.4511855600108647e-26], [4.2927132649132786e-26], [2.633941543138036e-26], [1.374352113221366e-25], [-3.707196973601329e-26], [2.8343254634621903e-26], [-9.143840826812299e-27], [-6.181836993244923e-26], [-9.098300287347318e-27], [-2.0252461456850013e-26], [4.686779793801493e-26], [5.136834569879802e-28], [1.2173005073102764e-26], [5.76399586067682e-26], [4.0624247370078437e-26], [-1.5719933244154382e-25], [-2.4029672300980035e-26], [-3.180017870676846e-26], [1.6143092408559324e-26], [-3.767786729651751e-26], [-3.937601057303427e-26], [-5.29093877882632e-26], [5.853828628854027e-26], [1.686653332542939e-26], [-4.6526402973840983e-26], [3.143782038033585e-26], [4.4617239405177605e-26], [-4.457872080628986e-26], [5.6480135860867e-26], [-1.722179621779809e-25], [8.68072770645066e-26], [-2.4720172112081302e-26], [3.950979953366701e-26], [6.692383457020887e-26], [-1.3203889736640746e-25], [2.2229342263102002e-26], [-6.221617769581022e-26], [-1.0131265879671612e-26], [-5.497813237137455e-26], [5.743017090978598e-26], [-4.862627366634154e-26], [-2.9679609659969585e-26], [-4.457736803309692e-26], [-1.1600671695222947e-25], [5.709462152817924e-26], [4.596000700686812e-26], [1.1604853890615783e-25], [1.752631493910367e-27], [-3.7756873565068144e-26], [-5.341797504202534e-26], [-1.8931711086283734e-26], [4.629790140077515e-26], [-2.466337412690539e-26], [5.188086724225055e-26], [-1.9955330525773906e-26], [2.23038788334377e-27], [5.168745765351541e-26], [4.7080824278791626e-26], [2.1020870526805588e-26], [1.2527692959827268e-25], [1.292195454690025e-25], [7.063781020091686e-26], [3.700327104452502e-26], [3.117893533646736e-26], [-5.387364082240363e-26], [-4.260786893113578e-26], [-5.0665383580212615e-26], [-9.803584923371262e-26], [-5.932392395740635e-26], [1.581044887005267e-26], [-3.9180687380306383e-26], [6.248834087108729e-26], [5.0646463244438955e-26], [-4.9347468178524474e-26], [6.073234882201696e-26], [-3.6119176755413946e-26], [-4.195105902736569e-26], [-3.949067581969122e-26], [2.2559529855743572e-26], [1.3084125860086224e-25], [5.843027397428321e-26], [3.7907509020110425e-26], [-4.8042760034022963e-26], [4.836632242765584e-26], [-5.264659849921145e-26], [-1.5311030583569773e-26], [-4.1492129951289635e-26], [-4.029117550475215e-26]]"
0,55,True,0.0316227766016838,0,1,500,4,1.0074284,0.8908142,"[1.7403688e-22, -9.158818e-23, 2.6649473e-22, 1.2499553e-22, 2.7884547e-22, -3.8924334e-24, 2.9106178e-22, 2.3794746e-22, -4.65778e-22, -1.9303652e-22, 2.8112852e-22, 3.0237076e-23, 1.5811357e-22, 2.258889e-22, -1.6311888e-22, -1.0011851e-22, -5.004408e-23, -1.6229383e-22, 1.3239852e-23, -1.6819104e-22, 2.55426e-22, 4.975211e-23, 5.7873796e-23, -1.107552e-22, -1.8393299e-22, 1.4945327e-22, -5.270262e-23, 2.9418246e-22, -1.3065737e-22, 2.6241712e-22, 2.917616e-22, 2.8550348e-22, -1.2484342e-22, 5.1948557e-24, -1.9161917e-22, 2.6092487e-22, 2.6883418e-22, 2.1721715e-22, -1.9909326e-22, 1.3012851e-22, -4.636914e-22, -1.8204332e-22, -1.7917191e-22, -1.7696582e-22, 2.8679716e-22, -1.118804e-22, -5.4537154e-23, -1.9759493e-22, 1.7025178e-22, -1.9958648e-22, -6.2029193e-23, 2.8331052e-22, 2.1675787e-22, 1.889432e-22, 2.159325e-22, -1.984795e-22, 2.9881445e-22, -1.022124e-22, -5.5213357e-22, 2.2097776e-22, 2.7449202e-22, -1.2649902e-22, 3.1010314e-22, 1.8991411e-22, 2.929044e-22, -4.3317094e-23, 2.4819228e-22, -6.6219894e-23, -1.8220017e-23, -2.8431683e-22, -4.996707e-22, -1.4938202e-22, 2.1826464e-22, 2.7021934e-22, -1.8929543e-22, -1.9926344e-22, 2.4611864e-22, 2.7611788e-22, -1.1123095e-22, 2.4178854e-22, -1.9405369e-22, -1.9973309e-22, -1.6072868e-22, 5.522693e-23, 2.603339e-24, 1.7880825e-22, 8.431164e-23, -3.5354517e-22, 1.8998272e-22, -1.6092569e-22, 2.8880776e-22, 1.5165159e-22, 1.2426835e-22, 6.606172e-23, 2.0766651e-22, -8.350259e-23, 2.552106e-22, 2.9703284e-22, 7.91132e-23, 3.8629818e-23, 3.161694e-22, -4.1255285e-22, -2.7145979e-22, -1.1370753e-22, -1.9264275e-22, 2.8959912e-22, 2.4632976e-22, -2.544491e-23, 2.8838556e-22, -1.6518851e-22, 2.8138403e-22, -1.9967934e-22, 1.9922362e-22, 2.185149e-22, 5.8463996e-23, 7.792241e-24, -1.9616824e-22, 2.9184165e-22, 7.222506e-23, 6.87525e-24, 2.2782752e-22, -2.3388916e-22, 3.5117355e-23, -1.4918498e-22, -1.9336092e-22, -2.0200843e-22, 2.911501e-22, 1.3010597e-22, -1.9472881e-22, 2.6385926e-22, -1.2744779e-23, -1.5895391e-22, 2.984209e-23, 2.4118873e-22, -8.08669e-23, 1.0167368e-22, 2.0703244e-22, -1.1473288e-22, 7.404246e-24, 2.762146e-22, 7.053462e-23, 2.8941098e-22, -1.9507489e-22, -3.7324597e-22, -9.2850443e-23, 2.774448e-23, -2.775892e-22, -9.360447e-23, 2.5090376e-22, -5.2230168e-23, 3.2474762e-23, -2.0004191e-22, -1.4735749e-22, -4.594816e-23, -1.6272435e-22, 2.802055e-22, 2.2059315e-22, 2.4408245e-23, -8.164627e-23, -1.0883028e-22, -1.9561121e-22, 2.8569273e-22, -5.046449e-22, 2.784095e-22, -1.6240765e-22, -3.639866e-23, 1.6370782e-25, 2.700923e-22, -1.2539876e-22, -9.866004e-23, 1.9313435e-22, 2.857271e-22, -1.6999093e-22, -3.930703e-23, -1.6752154e-22, -1.4041685e-22, -1.02674355e-22, 3.1196442e-22, 6.504656e-23, 1.8155196e-22, -1.7766015e-22, -1.2119034e-22, 2.3057566e-22, -4.7524524e-23, -1.803179e-22, -5.0591486e-23, -5.606342e-22, 9.28961e-23, -1.9902942e-23, -1.4200811e-22, -1.6025741e-22, -2.0064507e-22, -1.7130683e-22, 4.4854063e-23, 2.825044e-22, -1.4179086e-22, 9.911256e-23, -1.7544422e-22, 1.02436346e-22, -1.1886822e-22, -1.9471579e-22, -4.982344e-23, 4.2026704e-23, -1.98008e-22, 7.6893914e-23, -1.5536676e-22, -1.7069875e-22, -1.1841132e-22, 2.2459577e-22, 2.0006794e-22, -7.489424e-23, 3.0422382e-22, 2.8726063e-22, -1.9572535e-22, 2.4256958e-22, 2.9005683e-22, 4.5479014e-23, -8.169805e-23, 3.0070214e-22, -2.0115158e-22, 1.9233183e-23, -1.1063462e-22, -4.886779e-23, 2.8120372e-22, -2.345686e-22, 1.2923411e-22, 4.869265e-23, 2.595073e-22, -4.730031e-22, 1.5545914e-22, -1.6698283e-22, -1.1192355e-22, 2.548307e-22, -1.7325638e-22, 2.1907508e-22, -1.9908656e-22, -1.2841253e-22, -1.8091364e-22, 2.5727152e-22, -5.3955183e-22, 2.460731e-22, 1.9193773e-22, 1.04001125e-22, 7.113641e-23, -1.1739138e-22, -1.8528136e-22, 2.3329636e-22, -1.5919357e-22, 2.5636243e-22, 8.3499494e-23, 2.531212e-22, 2.5264928e-22, -1.6954833e-22, -1.8613655e-22, -6.0291364e-23, -1.7183131e-22, 2.585661e-22, -2.6105644e-22, -1.6153141e-22, 4.4369766e-23, -1.2766985e-22, 7.2162326e-23, 7.957935e-23, 1.1547158e-22, -1.4539081e-22, 9.3797266e-23, 4.232018e-23, 1.3603703e-22, 2.0826447e-22, -1.8623635e-22, 1.7007957e-22, 7.005467e-24, -1.4067918e-22, -8.600076e-23, -1.872332e-22, 8.847295e-23, -1.383348e-22, 3.0426352e-22, 2.8993296e-22, 3.074481e-22, -1.9913881e-22, -3.9989328e-23, 2.023453e-22, 2.6746515e-22, 2.5628864e-22, -3.8823518e-22, 2.7457741e-22, 1.1193264e-22, 6.979689e-23, -1.6964748e-22, 2.0106915e-22, 1.818228e-22, -9.860042e-23, 2.6996739e-22, -1.8865827e-22, -1.936152e-22, -1.9757231e-22, -1.715473e-22, 2.6331526e-22, -1.6923689e-22, 2.5417825e-22, 1.0933882e-22, -1.7860443e-22, -1.3411831e-22, -2.9563708e-24, -7.3244195e-23, -1.5382312e-22, 2.0020193e-22, 3.381614e-23, 7.399189e-22, -1.2875625e-22, 8.850888e-23, 1.106245e-22, -1.9610019e-22, -1.926645e-22, 6.896098e-23, 3.281999e-23, 8.168725e-24, 2.87642e-22, -1.7217027e-22, 1.6537012e-22, 1.9305907e-22, -4.6051425e-23, 6.7692905e-23, -1.7663907e-22, -1.7289043e-23, 1.3007708e-22, 1.5062919e-23, 1.7483619e-23, -1.0080159e-22, 1.1707234e-22, -3.411856e-22, 1.1929146e-22, 1.7626886e-22, -1.4902153e-22, -1.7273769e-22, 2.2746637e-23, -1.9072699e-23, -1.991192e-22, 2.8575824e-22, 4.649384e-24, -1.8135376e-22, 2.8063632e-22, -3.441885e-22, 1.1162802e-22, -1.3696117e-22, 2.5898644e-22, -4.163578e-22, -1.4134092e-22, -7.329733e-23, 1.674497e-22, -1.8129175e-22, -3.4945248e-23, -1.3713314e-22, 2.865169e-22, -1.6805033e-22, -7.8468234e-23, 1.6383113e-22, 2.0706516e-22, 2.857084e-22, -1.6567759e-22, 2.7723695e-22, 5.657554e-23, 1.1360589e-23, -5.0807956e-23, 9.3512146e-23, -1.6909403e-22, -6.4745495e-24, -4.968074e-23, -1.4370587e-22, 3.004589e-23, -5.805517e-23, 1.5863046e-22, -1.6478191e-22, 1.1803501e-22, 1.4104375e-22, 2.3015086e-22, 2.1680556e-22, -1.2564802e-22, 5.2781768e-23, -1.02664125e-22, 6.295591e-23, 2.7846126e-22, -7.473255e-23, -8.253183e-24, 2.6826582e-22, 4.8678186e-23, 1.6805952e-22, -1.7206183e-22, -1.171624e-22, -1.3555085e-22, 7.991356e-23, -1.6977986e-22, 1.1002516e-22, -4.1084062e-23, -1.4354439e-22, -3.7679938e-23, -1.3968115e-22, 2.7130623e-22, 1.0097932e-22, 1.5178281e-22, 1.236076e-22, 1.5246038e-22, -1.9738822e-22, -4.818709e-22, -1.9844829e-22, -2.8326534e-23, 2.9518524e-22, -1.7312849e-22, -1.834194e-24, -1.4484375e-22, 1.3623388e-22, -1.5160999e-22, 2.9299226e-22, 1.715136e-22, -4.385415e-22, -1.6841836e-22, -1.8872062e-22, -1.8832277e-22, 2.2486551e-24, -1.9158366e-22, 1.5334863e-22, 9.741361e-23, -1.9930563e-22, 2.8739786e-22, -1.893664e-24, -1.3631641e-22, -6.512424e-23, -5.0838195e-22, -1.7542465e-22, -1.8574448e-22, 1.3354793e-22, 1.2278302e-22, -1.248348e-22, -5.7344375e-23, -1.9160013e-22, -9.6879673e-23, 1.5590605e-22, -1.2583306e-22, 2.6480177e-22, -1.1173402e-22, -2.067634e-22, 2.7020844e-22, -1.9283252e-22, 1.3537246e-22, -7.3140697e-23, -4.4442924e-22, 1.8202481e-22, 1.7798004e-24, 2.3797013e-22, -4.5846548e-23, 6.3063996e-23, -1.4881036e-22, -1.6936851e-22, 1.5259903e-22, 2.1073476e-22, -9.123615e-23, 2.9952937e-22, 2.1762466e-22, 2.208048e-22, -1.5278334e-22, 2.7503008e-22, 1.4893977e-22, -1.262693e-22, 2.8552092e-22, -1.1869566e-22, -4.93945e-22, 2.1554515e-22, -1.2096105e-22, 2.9851403e-22, -1.8625893e-22, 1.4990635e-22, -4.560612e-22, 2.87787e-22, 2.884001e-22, -1.5398554e-22, 2.8621987e-22, -1.15304785e-23, 2.8427177e-22, -3.1255565e-22, -3.8013926e-23, -4.9574513e-22, -1.7133317e-22, 5.1516404e-23, -1.4481808e-22, 8.605808e-25, 4.4872914e-23, 2.7301623e-22, -1.6683586e-22, 1.0278515e-22, -1.8865126e-22, -4.736359e-22, -1.7281475e-24, -5.117216e-22, -5.2727188e-23, -1.1434442e-22, -1.4784735e-22, 2.6002837e-22, 8.977054e-23, -1.7517434e-22]","[[-2.1828230898181373e-23], [1.4921435288710067e-22], [2.5151440305601324e-22], [-2.112123403339967e-24], [-2.2585251799545854e-22], [1.1165068984664862e-22], [-2.5965802243988872e-22], [1.200246944801721e-22], [4.0512755794659663e-22], [1.8781407113059017e-23], [2.3333457969155396e-22], [9.463019540116386e-23], [-1.378176762339291e-23], [1.1306488394688195e-22], [-8.850402151807508e-23], [-1.5425271282543865e-22], [-1.3831133592208554e-22], [-1.0953584842305971e-22], [-1.007896024164678e-22], [1.0907712265123007e-22], [1.497556503076016e-22], [-7.433557478932636e-23], [8.0146967927683e-23], [-1.3868360253870296e-22], [6.638189417876637e-23], [-1.5335732098813297e-23], [-1.3915104995670072e-22], [2.383958102852561e-22], [-1.2259515671906768e-22], [1.621244970522622e-22], [2.291715650571982e-22], [2.265385366821877e-22], [-1.1723988926699708e-22], [1.2014694898781962e-22], [1.2924496700471131e-23], [2.44337333918538e-22], [-1.7189523987190828e-22], [-2.2804885821688764e-22], [1.575894315547466e-24], [1.456978464466056e-24], [-4.0440475940902244e-22], [-6.767738680086929e-23], [-1.0164113043199956e-22], [-1.043088434432908e-22], [-2.0223841487066172e-22], [3.4714439445756697e-23], [-1.6004365868913195e-23], [1.750030725817186e-24], [2.0177955025931276e-22], [-1.513950137091776e-23], [1.4208862912822445e-22], [-2.0636612640178704e-22], [8.900257529928751e-23], [-4.846542729434969e-23], [-8.550512576611033e-23], [-1.3829908648994927e-23], [2.400662516510542e-22], [-1.4118605865668126e-22], [5.057380952484665e-22], [-2.2913579494831184e-22], [1.816739848965769e-22], [1.4711547800823344e-22], [2.6213118341929074e-22], [-5.274271000854854e-23], [-2.578838805749339e-22], [-1.3568435337705267e-22], [1.392011962667238e-22], [1.409467498124734e-22], [1.2773610644040784e-22], [2.0861809078336508e-22], [4.598294197904797e-22], [-1.0915650099095703e-22], [9.889619740441805e-23], [-2.276681854984642e-22], [6.228938477667563e-23], [5.684759269393767e-24], [-2.2470600648847205e-22], [-2.3023467187839747e-22], [-1.3561781138197547e-22], [-1.288506722361765e-22], [-4.2510669730521814e-23], [2.0840076907030756e-23], [1.0055195964649177e-22], [7.285563386580829e-23], [-1.1666664613527832e-22], [3.5879239903969834e-23], [5.627019936499654e-23], [-2.8368755865003666e-22], [-4.221651612073938e-23], [-1.112187853455965e-22], [-2.233635797979521e-22], [-2.6249652699260394e-23], [-2.4801446072237556e-23], [7.202024909984097e-23], [8.416921822211113e-23], [1.9559023594937008e-23], [2.3690457287357527e-22], [2.6816459357081277e-22], [6.584134144295997e-23], [-9.349049334151123e-23], [2.8462210007634664e-22], [3.4405488067569767e-22], [-2.773606165111255e-22], [-1.4916207349718986e-22], [6.621432750072295e-23], [2.522530040552408e-22], [-1.3334369578617882e-22], [3.750272195780192e-23], [2.1651028441952853e-22], [-1.0771023496176104e-22], [-2.5035410857129073e-22], [-2.5861884965855384e-23], [6.448106125243306e-23], [9.409704533609205e-23], [1.0890015275119641e-22], [-1.122566486178287e-22], [-4.313017482116636e-23], [2.176835540884201e-22], [-7.459105843753486e-23], [-1.0885398230013564e-22], [1.0033262476040412e-22], [1.6355417806978684e-22], [-9.750663469708934e-23], [-1.643891589389707e-22], [-5.1751597789003345e-23], [-4.8123929408479517e-23], [2.583940022124605e-22], [-1.7094594359122704e-22], [8.391203063434736e-23], [1.6356914749432431e-22], [-1.1777944488261929e-22], [1.1006880285062703e-22], [9.678041565863012e-23], [-1.2754381370615117e-22], [1.4525997618495775e-22], [5.1816161320930254e-23], [-8.048675871855427e-23], [1.459229979985779e-22], [-1.0938664642688983e-22], [1.9105131962734564e-22], [-6.124637813134138e-23], [-2.0267492631940033e-22], [-4.3098541498866995e-23], [3.6983079084693664e-22], [1.4643621197085297e-22], [1.0750797102566237e-22], [-2.0343694071029486e-22], [-1.495723442767772e-22], [-1.4155954958542358e-22], [-1.3895765912806398e-22], [-9.233522232303317e-23], [-2.9071455488890266e-23], [1.062545783323493e-22], [1.3565913507163456e-22], [1.0789153413044255e-22], [-2.2153526527691395e-22], [2.285915945196797e-22], [1.0400498684437415e-22], [-1.4090126093723475e-22], [-1.3744343746504862e-22], [-3.424620001141009e-23], [2.3748540169175864e-22], [4.828157410960144e-22], [1.939902493287391e-22], [-1.3279861183333282e-22], [1.3375230049153433e-22], [1.1679206870832122e-22], [-2.4445153573406503e-22], [1.3394086980231836e-22], [2.313348488512549e-23], [5.1968973144602426e-23], [-2.28437280704844e-22], [1.200660812787036e-22], [-1.3486045442586536e-22], [-1.2521745658576716e-22], [1.4664150513282769e-22], [-3.5042703401080885e-23], [2.6275071059804063e-22], [7.250669859932369e-23], [-5.361962672345394e-23], [-1.042495084814437e-22], [-5.1228977439294425e-23], [-1.1259815597002975e-22], [-1.3738990851946395e-22], [-1.141321559536608e-22], [-1.379590117091521e-22], [5.213028636447798e-22], [-5.360967445427367e-23], [-4.020023497864879e-23], [1.1632936707752926e-22], [-1.4511453547758396e-22], [7.474477902896985e-23], [-9.951313711939881e-23], [9.249159979799694e-23], [2.329827351060509e-22], [-1.285085969041237e-22], [1.4556970190900924e-22], [8.86287372717469e-23], [4.87682646849768e-23], [-1.3109564415469067e-22], [-4.983167758420731e-23], [1.3821171225608699e-22], [-7.410944938856657e-23], [-1.3093749174269015e-23], [1.2784626928810015e-22], [1.2195337735190332e-22], [8.925741523699735e-23], [1.367672132753187e-22], [9.216974454866677e-23], [-7.110101788597951e-23], [-1.4369305861347363e-22], [2.761670257853154e-22], [-2.2199815623432316e-22], [2.5702372557654264e-23], [-2.4590321650451446e-22], [2.2798537069123545e-22], [1.0256240006244011e-22], [1.4629457041759873e-22], [2.36154990930547e-22], [-4.121260226642426e-23], [-7.484099481585784e-23], [1.2322224434073321e-22], [1.352992062395748e-23], [2.012601894828642e-22], [1.5559874934346088e-22], [-3.1231284072182116e-23], [-8.241647026490591e-23], [-2.3863272099231207e-22], [-4.538456889433248e-22], [1.902919936744161e-22], [-1.1714203264942623e-22], [-1.385021140434042e-22], [1.4887345138007484e-22], [-1.0057105008039812e-22], [1.0066230550991409e-22], [-1.4256535670591123e-23], [1.4443275770708127e-22], [-1.9325640673849183e-22], [-1.5374165717660027e-22], [5.04934239675159e-22], [2.4682006220299853e-22], [-2.1785692678272597e-22], [3.557001589545406e-23], [-5.536540746114425e-23], [-1.454823466078087e-22], [7.928152440578313e-23], [1.1916837019033658e-22], [-1.0426337981160111e-22], [-1.506050831085691e-22], [-5.573827992293688e-23], [-1.4584076713781767e-22], [-2.415420904978651e-22], [-1.0170329267133098e-22], [-1.0137089192941981e-22], [1.411269256432259e-22], [-7.888650704065914e-23], [-2.527284158129377e-22], [1.8671921108023393e-22], [1.2507611795510052e-22], [-8.692395836846636e-23], [1.2916840016525056e-22], [-1.254340841012281e-22], [1.2918166565023276e-22], [-2.745831382380382e-23], [-7.382474002154144e-23], [4.679408978256328e-23], [-9.30332190737472e-23], [1.0810905621417e-23], [8.593303547553841e-23], [-1.1174878627793466e-22], [-1.9978033691176753e-22], [-1.181396829481539e-22], [-1.3151986199508232e-22], [-1.4420543954863278e-22], [1.070215909459393e-22], [-5.82251165949918e-23], [1.4495769730785154e-22], [-2.524354896707238e-22], [2.5370006525622927e-22], [2.583313729674732e-22], [4.2753338333324996e-24], [1.34744207882872e-22], [7.358097569094091e-23], [-1.9206965701445182e-22], [-1.504904016656117e-22], [3.2107792472682976e-22], [-1.865563901893963e-22], [-4.7558297206774326e-23], [1.2065927943588084e-22], [1.0408926243260073e-22], [-7.496849998169053e-23], [-5.0415740732102084e-23], [-3.464870208880282e-23], [-2.314186448120511e-22], [-6.194916484547191e-23], [-8.325957955685716e-23], [1.0500014749808494e-23], [9.660863330790919e-23], [-2.5265225602570403e-22], [-1.1039813019045145e-22], [-2.1564804051746023e-22], [2.9518149554193474e-23], [8.639239864697947e-23], [-1.305379636709101e-22], [1.1129509659412395e-22], [1.3673894050047557e-22], [-1.4039007907065153e-22], [-2.2241305920514596e-22], [-1.017384253806059e-22], [7.230469845831173e-22], [1.148811699168373e-22], [5.112833456500633e-23], [1.5639583964564516e-22], [-6.498268843573224e-23], [4.3691727034269745e-23], [8.402305176270454e-23], [1.1047104618164284e-22], [1.134528394291824e-22], [2.0531628506556995e-22], [1.0969311573312457e-22], [3.256304851870709e-23], [-5.957726205186407e-23], [2.0206837748026314e-23], [-8.16374606546693e-23], [-1.1341859655500857e-22], [1.2726260057065798e-22], [-1.7040448208765782e-22], [-1.0437319556049511e-22], [9.905302295237598e-23], [1.4541747068696331e-22], [2.429255190227948e-23], [2.708426564371805e-22], [2.925433237938222e-23], [2.0573915237609186e-22], [-7.133747420915408e-23], [8.733436167668578e-23], [-1.0531054533162769e-22], [-1.2779252577234925e-22], [5.6791488906358355e-24], [2.152412912129538e-22], [1.1226241676876768e-22], [5.73506169499e-23], [2.182812455973135e-22], [2.7353952574752873e-22], [1.5537471284637811e-22], [-1.3967509341148266e-22], [-1.550370172700711e-22], [4.0923326972479715e-22], [-1.0933358448696105e-22], [-1.4375912098112046e-22], [-2.668528377922878e-23], [8.543479092780082e-23], [-1.337076320316371e-22], [-1.3248704333020673e-22], [-2.0592245840691626e-22], [-9.867419301302713e-23], [-2.6690994343321677e-24], [1.720556752473685e-23], [7.123924524923596e-23], [2.0267071064672283e-22], [-1.2291121857390991e-22], [-2.4921792167583177e-22], [-8.101778201462561e-23], [-1.0773942912614146e-22], [-1.3844878704621125e-22], [-5.998935036697704e-23], [-7.863691145024721e-23], [-1.2074629394917034e-22], [-1.342595317427042e-22], [1.3133252961819768e-22], [-1.0055252131545629e-22], [-1.3785654814389476e-22], [-2.0790309250242173e-23], [-1.3020476144631923e-22], [-2.4665250814672958e-23], [-1.7909278152759582e-22], [1.082725097714536e-22], [1.01326860869134e-22], [1.1008942683013313e-22], [-1.0914031987606914e-22], [-1.444649306102398e-22], [-7.494418413314799e-23], [1.9753358532305118e-22], [1.4442594194886016e-22], [1.2116884571533016e-22], [-2.657715808593812e-22], [1.0642301591283208e-22], [-2.800613354626912e-23], [1.0602868643441745e-22], [1.3133838612155804e-22], [1.3404175564576527e-22], [-1.2766195351531707e-22], [8.347018648588945e-23], [-1.5394591535306733e-22], [-1.3532694258900237e-22], [-1.1477969084998966e-22], [-1.325969284988604e-22], [1.2813600212136972e-22], [1.8062257846032386e-22], [3.330139392700137e-23], [-5.380102765519223e-24], [2.786044355884928e-23], [-7.091662322710591e-24], [7.170530427204053e-23], [-4.244441235645921e-22], [2.2863880626713536e-23], [1.309109371068986e-22], [2.3841671194380084e-22], [-9.111354183810997e-23], [-1.2222560378396423e-22], [1.4347210182936485e-22], [-9.867874474045025e-24], [1.3046201845384267e-22], [2.2262682157779913e-22], [-3.495469492305081e-23], [-3.73889852546646e-22], [-1.1072979255855534e-22], [8.662737191165222e-23], [-3.016201151414762e-23], [-1.1073039840373054e-22], [-3.0890164839546446e-23], [-1.1958134991827245e-23], [4.028168328939105e-23], [3.2029835344762863e-24], [2.0552899983094099e-22], [1.1503723815832621e-22], [1.242891881813755e-22], [-5.006677312232037e-24], [4.869145361417979e-22], [-1.0193711104363849e-22], [5.366125964658789e-23], [-9.809920018782059e-24], [-1.959229459247561e-23], [-1.4619110973215718e-22], [1.4064445831359272e-22], [6.032495072871978e-23], [-1.366075856934254e-22], [-2.2008458793753596e-23], [1.3049753612723934e-22], [-1.7818804011084147e-22], [1.4879063991768836e-22], [1.3606477365998645e-22], [2.5951595174630204e-22], [-7.82837289566489e-23], [-2.225091440411237e-24], [1.464946760302607e-22], [3.8123368056859774e-22], [-4.7767203351694954e-23], [-1.1164376049245716e-22], [1.2744822900798735e-22], [-1.3709604836593826e-22], [6.449107663048575e-23], [-1.3884800115135101e-22], [-9.62107444890902e-23], [2.4455443790598568e-23], [-2.23474070811781e-22], [1.4782075752282447e-22], [2.357372606822399e-22], [2.2935465651785636e-22], [-9.588803726998238e-23], [-1.150835474489063e-22], [-2.1057317840731587e-22], [-8.31006193512897e-24], [1.3601395839591573e-22], [-2.018809535955135e-22], [1.4440907925815016e-22], [4.773816127969706e-22], [8.023150857317372e-23], [1.4408519190312814e-22], [2.3646621864576205e-22], [6.940370476230598e-23], [1.8454463079801444e-22], [-3.943945815274237e-22], [2.4755439704245066e-22], [2.1649647619824354e-22], [9.635460747465354e-23], [-2.2772962829665004e-22], [-1.276074905584206e-22], [-2.1597156184102223e-22], [-3.128061943319464e-22], [-1.3366953951624579e-22], [-4.778308974814866e-22], [-1.171685005105182e-22], [6.85952359304248e-23], [1.4097085740173697e-22], [-1.1975402052637265e-22], [7.81823445531099e-23], [-1.869075153337538e-22], [-1.2572411985708527e-22], [-4.399673852555164e-23], [6.894724459899614e-23], [-4.143427912276733e-22], [1.152317397031175e-22], [-4.915078523118464e-22], [-1.367913587299057e-22], [1.3921689775418133e-22], [-1.4519181860274665e-22], [-1.5730329474391348e-22], [-6.389464098815349e-23], [-1.2224722488365453e-22]]"
0,55,True,0.0177827941003892,0,1,500,4,1.0074284,0.8908142,"[-4.361257e-20, -5.9841464e-20, 1.5778457e-19, -4.740795e-21, 1.6113272e-19, -9.923764e-20, 1.7202553e-19, -6.1434316e-20, 2.1684607e-19, 7.155313e-20, 1.4845382e-19, -9.5143044e-20, -5.3600444e-20, 5.397632e-20, 5.1401898e-20, -7.403206e-20, -8.687882e-20, 3.563945e-20, -9.920644e-20, 3.126138e-20, 7.645637e-20, -6.929416e-20, -9.25653e-20, -2.678531e-20, 6.81327e-20, -8.6319354e-20, -8.1696726e-20, 1.6714022e-19, -1.3059351e-20, 4.3483502e-20, 1.7206888e-19, 1.5467586e-19, -1.0672737e-21, -6.9298936e-20, 7.209691e-20, 1.5324507e-19, 1.4091439e-19, 6.183712e-20, 7.141696e-20, -5.888495e-20, 2.2756152e-19, 6.36452e-20, -3.378623e-19, 8.40687e-21, 1.3139095e-19, -3.0277737e-19, -2.5991842e-19, 7.252374e-20, 2.9401876e-20, 7.2216124e-20, -5.7154594e-20, 1.6168207e-19, 1.0085141e-19, 5.2948425e-21, 2.251308e-20, 6.5952015e-20, 1.7450609e-19, -1.8609027e-20, 2.7412484e-19, 9.1520833e-20, 8.019934e-20, -4.5943847e-20, 1.6004269e-19, -2.373444e-20, 1.6953102e-19, -9.166793e-20, 3.3971636e-20, -6.1560655e-20, -8.255894e-20, -3.096841e-19, 3.935908e-19, 4.256084e-20, 7.3538864e-20, 1.318905e-19, 5.658409e-20, 7.184368e-20, 1.5529177e-19, 1.6106515e-19, 6.6141027e-21, 9.60808e-20, 6.4148735e-20, 7.2189984e-20, 5.1100656e-20, -9.063102e-20, -9.170463e-20, -1.7364161e-20, -8.638972e-20, -3.4638061e-19, -3.759966e-20, 1.9032185e-20, 1.6901626e-19, -1.3291664e-20, -4.9616736e-20, -6.595259e-20, 8.332145e-20, -2.4312842e-19, 1.6181369e-19, 1.5095039e-19, -8.806593e-20, -8.680089e-20, -6.276081e-19, -3.2668764e-19, -3.6000288e-19, -3.5013806e-20, 5.510971e-20, 1.7340965e-19, 7.29635e-20, -3.357087e-19, 1.6463267e-19, 4.8327368e-20, 1.715496e-19, 7.2403384e-20, 5.1247374e-20, -7.379087e-21, -2.675005e-19, -9.23291e-20, 6.688836e-20, 9.1485956e-20, -8.656168e-20, -9.456123e-20, 5.039542e-20, -3.7731236e-19, -9.1719195e-20, 5.4573877e-19, 7.182904e-20, 7.2742334e-20, 1.6655177e-19, -1.351718e-19, 3.6910983e-20, 9.9493736e-20, -9.285635e-20, 6.537874e-21, -9.363365e-20, 5.522524e-20, -4.3537275e-20, -8.9109854e-20, -2.9071105e-21, -2.5046179e-20, -8.665513e-20, 1.4441865e-19, -9.5124956e-20, 3.5458218e-20, 5.6076616e-20, 8.103684e-19, -3.5612743e-20, -8.553517e-20, -3.5965557e-19, -3.4570812e-20, -1.8081696e-20, -8.936984e-20, -1.8019149e-19, 6.9938677e-20, 2.2849318e-20, -9.030547e-20, 1.6875787e-20, 1.6276554e-19, 1.4485173e-19, -9.000068e-20, -4.8097202e-20, -2.2181506e-20, 6.872276e-20, 1.6841331e-19, 7.643323e-19, 1.4640651e-19, -3.235797e-20, -7.077439e-20, -9.285209e-20, 1.65959e-19, -3.0797673e-20, -2.9698886e-19, 5.741527e-20, 1.6210507e-19, 3.3500543e-20, -7.0511596e-20, -1.6595681e-20, -1.0496529e-20, -2.815709e-19, 1.8681556e-19, -8.849456e-20, -1.863338e-20, 3.9886452e-20, -3.6355518e-19, 8.1130146e-20, -8.147129e-20, -3.5494796e-19, -7.97405e-20, 5.301877e-19, -7.871607e-20, -2.1968071e-19, 2.0456784e-21, 1.2488402e-20, 5.829871e-20, 5.1628213e-20, -8.97536e-20, 1.4972963e-19, 2.6653154e-20, -1.7242886e-19, 4.0584538e-20, -8.9816654e-20, -2.2329586e-20, 6.4398033e-20, -7.732458e-20, -1.00430124e-19, 7.1189664e-20, -7.956096e-20, 7.5982234e-21, 2.0964607e-20, -1.5545404e-20, 8.840095e-20, -8.530549e-22, -7.8855936e-20, 1.7675984e-19, 1.4771817e-19, 7.1703525e-20, 1.4937854e-21, 1.5714333e-19, -8.356855e-20, -6.497758e-20, 1.6320855e-19, 7.207947e-20, -1.8541631e-19, 3.823415e-21, -3.8216559e-19, 1.1144555e-19, -3.1495323e-19, -5.4507816e-20, -9.156934e-20, 1.5713036e-19, 7.9303894e-19, -3.141793e-20, 3.037742e-20, -3.3584838e-20, 9.6017096e-20, 4.482592e-20, 8.6117244e-20, 7.229413e-20, 2.385855e-19, 1.4082878e-19, 1.0562083e-19, 5.3844474e-19, 1.6777379e-19, 1.2800333e-19, -8.234442e-20, -8.804973e-20, -5.3261946e-20, 5.780545e-20, 4.727662e-20, 1.2869874e-20, 7.794806e-20, -5.2975684e-20, 5.2776356e-20, 1.5819152e-19, 3.61202e-20, -5.9261812e-21, -6.4468266e-20, 1.4377152e-20, 1.3312306e-19, -3.1600308e-19, -1.05061235e-20, -9.3572254e-20, -2.7742342e-20, -1.9490156e-19, -1.8526908e-19, -8.2801206e-20, -3.3773784e-19, -7.3741316e-20, -9.066014e-20, -7.805331e-20, -4.1678198e-21, -3.457196e-19, 2.0157228e-20, -8.48369e-20, 4.247437e-21, -7.215927e-20, 1.2389574e-20, -6.50639e-20, -1.0405268e-20, 1.810116e-19, 1.60001e-19, 1.8056838e-19, 7.058011e-20, -8.140303e-20, -4.52207e-21, 1.5362873e-19, 1.1383393e-20, -3.316196e-19, 1.4171589e-19, -7.399155e-20, -8.113097e-20, 1.9794487e-20, 2.6503345e-20, -2.4730458e-20, -3.3043485e-19, 1.5233476e-19, 5.2410157e-20, 5.7144377e-20, 6.515498e-20, 4.989736e-20, 1.4798264e-19, 3.7650185e-20, 1.2627534e-19, -9.1616786e-20, 5.092355e-20, 2.4188608e-20, -9.62384e-20, -5.30664e-20, -3.1836768e-21, -6.0389464e-21, -8.784191e-20, 3.2933501e-18, -2.1965592e-20, -8.618681e-20, -6.18647e-20, 5.504939e-20, 6.753874e-20, -8.105936e-20, -8.067437e-20, -8.952935e-20, 1.4837765e-19, 2.2359606e-20, -5.793092e-20, -2.4247375e-20, -2.1782876e-19, -8.4362716e-20, 1.4824306e-20, -8.564378e-20, -3.917471e-21, -9.3265054e-20, -9.560936e-20, -4.7621444e-20, -5.139543e-20, -3.4604468e-19, -7.5304e-20, -4.3203353e-20, -3.0424235e-19, 6.2982656e-20, -8.865411e-20, -8.459336e-20, 7.261291e-20, 1.3276425e-19, -8.658114e-20, 4.708422e-20, 1.6044422e-19, -1.8544803e-19, -2.6985793e-20, -7.404725e-21, 9.135618e-20, 6.1517417e-19, -1.14660505e-20, -2.1791154e-20, -1.6123458e-20, 4.9336558e-20, -4.218334e-20, -5.674159e-20, 1.2197526e-19, 3.755152e-20, -2.4122732e-19, -2.570794e-20, -4.146867e-20, 9.5938986e-20, 1.1180586e-20, 1.7005462e-19, -9.277393e-20, -9.329011e-20, -8.1640613e-20, -8.81915e-20, 5.2284028e-20, -9.091612e-20, -2.1250428e-20, 8.310121e-21, -9.1803774e-20, -1.7626418e-20, -4.942682e-20, -3.3997227e-20, -5.7744296e-20, -9.6098057e-20, 5.0926147e-20, 3.2687525e-20, -1.1783221e-20, -7.898715e-20, -5.0616552e-20, -9.372198e-20, 1.431855e-19, -8.524774e-20, -9.266503e-20, 2.4706652e-20, -7.08311e-20, -3.0639616e-20, 3.4577326e-20, 4.887167e-21, 1.156789e-20, -3.550454e-19, -7.783249e-21, -6.996663e-20, -8.655594e-20, 2.3565172e-20, -8.5413416e-20, 2.7351926e-20, 1.3564423e-19, -4.322175e-20, -3.5637303e-20, -8.639729e-20, -6.3622325e-20, 6.591555e-20, -1.5591839e-19, 6.443555e-20, -7.7787916e-20, 1.6866527e-19, 5.7540364e-20, -8.168706e-20, -5.3347737e-20, -4.6863856e-20, -1.1759947e-20, 1.5119554e-19, -1.6761631e-20, 1.6325738e-19, 4.8214267e-20, 5.4866884e-20, 6.701255e-20, -9.67821e-20, 6.2563954e-20, -1.964597e-20, -7.0847464e-20, 7.196536e-20, 1.7455646e-19, -8.082293e-20, -1.0651939e-20, -3.3685018e-19, 7.6076246e-19, 1.2011761e-20, 4.7733727e-20, -2.6416355e-20, -5.703302e-20, -6.424883e-20, -7.454677e-20, 4.3049242e-20, -8.100077e-22, -6.7373454e-20, 3.980547e-20, 7.890465e-20, -4.1547883e-20, -3.777848e-19, 9.882767e-20, 5.1017466e-20, -6.636681e-20, -7.679249e-20, -1.6286757e-19, -2.6483504e-20, -8.952995e-20, 3.4971778e-20, -4.9104016e-20, -7.9263975e-20, 1.456426e-20, 1.2266983e-20, -1.0831631e-20, 1.4933795e-19, -5.1775587e-20, 1.6790332e-19, 1.0733188e-19, -1.8277732e-20, 2.64717e-20, 1.5533352e-19, -7.82586e-20, -2.9958763e-20, 1.2995163e-19, -3.4558213e-20, 7.7042263e-19, 2.9880423e-20, -2.0716921e-20, 1.7047621e-19, 4.5765764e-20, 3.2618995e-20, -2.3078362e-19, 1.7162081e-19, 1.6741731e-19, 2.888443e-20, 1.6123193e-19, -5.367449e-20, 1.1169169e-19, 7.1795586e-19, -8.049895e-20, 7.6089093e-19, 2.2548827e-20, -9.040285e-20, 8.988144e-21, -7.215966e-20, -8.819645e-20, 1.1551505e-19, 1.428095e-20, -7.807042e-20, 6.468737e-20, 5.929268e-19, -9.377442e-20, 8.318625e-19, -2.3352325e-20, -5.329774e-20, -4.770886e-21, 1.1293719e-19, -3.05294e-20, 1.14973905e-20]","[[1.076369902995621e-20], [5.153401455277852e-20], [1.4157740313591764e-19], [1.617052956099213e-20], [-1.499014767364036e-19], [7.055480332506238e-20], [-1.574485563230638e-19], [-2.916254653241536e-20], [-2.258971316263674e-19], [8.29328777985608e-21], [1.3124900628773032e-19], [6.388629940885861e-20], [2.1631322317887197e-20], [6.654604696973459e-20], [-1.252674403273349e-20], [-6.089164709747523e-20], [-5.974783079372485e-20], [-1.412360004939577e-20], [-6.901258969644261e-20], [1.4645214973792882e-20], [8.527138686049497e-20], [-3.852881600592986e-20], [5.760691288502716e-20], [-3.525344573650983e-20], [5.325509548754651e-21], [5.332678312764516e-20], [-5.867521664613939e-20], [1.5212573955416456e-19], [-3.02948016946356e-20], [5.774706183771808e-20], [1.6039580084559023e-19], [1.4753350421190864e-19], [-2.6839519641985286e-20], [4.7714159107493994e-20], [1.0459032416040304e-20], [1.3648986755250145e-19], [-1.3931934223531565e-19], [-4.4010777801040323e-20], [-5.4459192578436685e-21], [-3.0208587502822554e-20], [2.371012413246099e-19], [-7.592016334995841e-21], [-3.3680395719382883e-19], [-2.2295099216544056e-20], [-1.3192969838367904e-19], [3.057011906800107e-19], [2.6641882282956786e-19], [4.776011206013687e-21], [1.399344350312798e-20], [2.144151506346182e-21], [4.9483139777401196e-20], [-1.5247851916072135e-19], [1.0462684450756469e-19], [-2.7266028182984405e-20], [-4.097064024948933e-20], [-5.8124386251806536e-21], [1.648711193781406e-19], [-3.2434569305293965e-20], [-2.8211946048825445e-19], [-7.319763245747223e-20], [8.863375972824939e-20], [4.4751088293403944e-20], [1.5673246348183722e-19], [-2.8696224269882157e-21], [-1.6157474001363143e-19], [-6.317843959966636e-20], [4.9769589838588895e-20], [4.8343003781141827e-20], [5.493073803417376e-20], [3.048426030535748e-19], [-4.0249634084671163e-19], [-1.3853848696823986e-20], [8.288495140623388e-20], [-1.1337926841838241e-19], [7.795090790964743e-21], [1.4319535427768394e-21], [-1.4136520545940364e-19], [-1.4963291445596237e-19], [-2.3814463596329177e-20], [-1.0146703395465773e-19], [-5.914865637779096e-21], [-6.578604166241525e-21], [1.0937700995450714e-20], [5.71991645418268e-20], [-5.65002356983107e-20], [8.719379499374655e-21], [5.0804244150876415e-20], [-3.424956060430472e-19], [5.867148060089227e-21], [-1.9333521204965723e-20], [-1.5527515218827778e-19], [-8.683257394441517e-21], [-1.742171293889961e-20], [3.2344991461068154e-20], [9.111501076022437e-20], [2.5124344485985244e-19], [1.5009590295444478e-19], [1.3510939358302995e-19], [5.1229877043648964e-20], [-5.0676981121165424e-20], [-6.303958440915226e-19], [3.226791761502382e-19], [-3.6250239087432e-19], [-4.024049503137216e-20], [5.964143468743522e-21], [1.6044408751384801e-19], [-8.197806418684312e-20], [-3.3865870292232586e-19], [1.5585585882768415e-19], [-9.611193290806191e-21], [-1.6025494749690893e-19], [3.011857304617381e-21], [6.428156249468825e-20], [1.5536090109099627e-20], [-2.7452405545924527e-19], [-5.718555483581089e-20], [-3.1417650504665535e-21], [9.828443716081435e-20], [-4.8642746893267194e-20], [-6.561032475117812e-20], [6.351157366667502e-20], [3.7656968286533823e-19], [-5.637632662748968e-20], [5.467579062962726e-19], [-1.9143714202975837e-22], [9.208816774826026e-21], [1.5131866977025423e-19], [1.4735232580836539e-19], [9.634223485399831e-21], [1.0403959797144032e-19], [-6.897376390644091e-20], [2.3965855419884854e-20], [6.320291251357057e-20], [-6.757726977494972e-20], [4.3019586013828783e-20], [5.204757415972604e-20], [-1.8984790259766463e-20], [3.5468761496192236e-20], [-5.217586470285419e-20], [1.3937818838108056e-19], [-6.187851234234221e-20], [-5.0820338629904253e-20], [-7.966180660650406e-21], [-8.152666784916381e-19], [3.999435386917508e-20], [4.633301628494906e-20], [-3.590635684233898e-19], [-4.040760490215348e-20], [-6.4357272946750294e-21], [-6.210866242308802e-20], [1.905249370043422e-19], [2.807361333919045e-21], [2.003830655184218e-20], [6.680220154098754e-20], [2.0318324960649852e-20], [-1.501826922952775e-19], [1.2739169507033363e-19], [5.3739840290167487e-20], [-4.27561031393365e-20], [-3.3480762140891745e-20], [-4.0711681018971945e-21], [1.5634336547651052e-19], [-7.704599073720774e-19], [1.4160669049948084e-19], [-3.886841888382263e-20], [5.370368345011097e-20], [5.824664015360889e-20], [-1.5151824001772971e-19], [3.667633533059455e-20], [3.0075516760482646e-19], [6.928464164509306e-20], [-1.528124674836455e-19], [1.2194647172664789e-20], [-5.0010522347866304e-20], [-3.195108223725672e-20], [2.95103468994255e-20], [-2.758567209742506e-19], [1.766704243012062e-19], [5.266696118629207e-20], [-5.03092823752207e-21], [-1.0561948547643533e-20], [-3.6249233545999867e-19], [-8.901360365047315e-20], [-5.945829819228569e-20], [-3.585518538169492e-19], [-5.442156959305616e-20], [-5.3776097296626305e-19], [-4.224922560077476e-20], [2.2854842643535887e-19], [2.5662296227480277e-20], [-1.9019795186196515e-20], [-1.6096011816131682e-21], [-8.774088126489661e-21], [5.755202169656602e-20], [1.3264020775577088e-19], [-1.6555628988162447e-20], [-1.8293051425231044e-19], [1.3197287010307092e-20], [5.31137291899502e-20], [-3.3312705536049966e-20], [-4.191458661435088e-21], [5.82981838455286e-20], [-7.020741331718425e-20], [-4.224456220851278e-21], [-9.318579280026552e-20], [2.286588938212259e-20], [2.0165007357230575e-20], [3.127201865313897e-20], [9.279359286764174e-20], [-2.09130306625714e-20], [-5.63720614774562e-20], [1.626292401982717e-19], [-1.4279951079217645e-19], [3.73107125823824e-21], [1.4416796802454606e-20], [1.503410069097019e-19], [-9.730667736503399e-20], [5.243767059790149e-20], [1.5734853209243023e-19], [7.05646858715604e-21], [1.9537836754970882e-19], [2.5481646120929804e-20], [-3.8140147746780775e-19], [1.1379468110694596e-19], [3.1084925261981106e-19], [-1.8505526336497214e-20], [-5.691670821203408e-20], [-1.4802806774533585e-19], [7.970603815105577e-19], [-4.5889996443441555e-20], [-1.4170675027303135e-20], [-3.7726987186681876e-20], [9.992278468624926e-20], [-1.0475562295800727e-20], [9.348792698134905e-20], [1.6538560512041263e-21], [-2.378987726820817e-19], [1.3986095166608182e-19], [-1.0757278363568694e-19], [-5.46190046805755e-19], [1.525385156045256e-19], [-1.1197118729596695e-19], [4.787857417893598e-20], [-5.603698224353833e-20], [-4.691281496438618e-20], [5.70423063792036e-21], [6.092152253475517e-20], [-2.2244529723666083e-20], [-8.613712830675974e-20], [-2.1562171957382325e-20], [-6.558077243132496e-20], [-1.4197364849872468e-19], [-1.4034259696478643e-20], [-2.7497822931432516e-20], [5.1500468501530374e-20], [-2.2874427760125214e-20], [-1.161331982468158e-19], [3.1124691969929593e-19], [2.948632634991878e-20], [-6.276444862778064e-20], [3.530882806345967e-20], [2.0465129486097554e-19], [-1.9536078996169207e-19], [-4.762643918847216e-20], [-3.4043866635356926e-19], [3.9771641951593714e-20], [-5.872926126694237e-20], [-4.824974239825074e-20], [1.7366842753071214e-20], [-3.4710853382531403e-19], [-3.252871804941834e-21], [-5.31551237634948e-20], [-2.4135149564471195e-20], [-5.327975984852608e-20], [1.937352475798804e-20], [-3.000396046761798e-20], [2.9499845583055195e-20], [-1.6842812525908933e-19], [1.4411992369435836e-19], [1.7214095128792774e-19], [-2.2133707817397347e-22], [5.864642688341343e-20], [1.7860168746753864e-20], [-1.3920835786156577e-19], [-3.0928518979079253e-20], [3.2712493590058686e-19], [-1.3732794368468545e-19], [-3.480471641007115e-20], [-9.438141775222556e-20], [1.8801930030016825e-20], [-4.353903605146648e-20], [-6.791577425553983e-22], [-3.3491116115715437e-19], [-1.4351839536797039e-19], [-9.733923790813046e-21], [-2.2542057058037317e-21], [9.179421974718417e-21], [9.82569641016025e-21], [-1.3128660423151027e-19], [-1.1822629962311167e-20], [-1.2199483271191383e-19], [5.730656231213945e-20], [9.517515086434561e-21], [-1.7769834807749392e-20], [6.421873554222543e-20], [4.2418267713768214e-20], [-2.635013083414793e-20], [2.131162832024539e-20], [-5.491621713701434e-20], [3.295322744674211e-18], [3.2646450326729716e-20], [5.1214894088569244e-20], [-7.667745850986064e-20], [-4.2197080102647674e-21], [5.252844882336778e-21], [4.9947275342748675e-20], [4.5832003327683345e-20], [5.886499643558349e-20], [1.455693509227044e-19], [1.7208041846919505e-20], [-2.792603107009649e-20], [-1.849881599533659e-21], [-2.267415279354192e-19], [-5.2965667091477476e-20], [-1.9242899691451418e-20], [5.557622971764922e-20], [1.895016661190001e-20], [-6.506551645788685e-20], [6.303739884287753e-20], [4.428735339366567e-20], [2.067690452501732e-20], [3.422149333214503e-19], [3.950201661481837e-20], [-5.74491346455312e-20], [-3.0756082194400064e-19], [6.396218919109252e-21], [-5.846155847885636e-20], [-5.626769454860674e-20], [7.73639146168063e-22], [1.3100240306761295e-19], [6.16105187485721e-20], [1.466913212572303e-20], [1.494823288103865e-19], [1.7820698983720587e-19], [-4.143727674372007e-20], [-2.8319781966368803e-20], [-9.73392540640018e-20], [-6.164280205691639e-19], [-2.9772973512736816e-20], [-3.394153405382646e-20], [-9.175306266494825e-21], [9.41625573943714e-21], [-4.0035709668628464e-20], [-4.693015990785565e-20], [-1.2325169487859694e-19], [-1.4092661555781727e-20], [-2.483331391215553e-19], [2.1630203523796977e-21], [-1.094321741771939e-20], [1.0189385268838655e-19], [-2.0861601677338195e-20], [-1.5934225708853324e-19], [-5.805899940153007e-20], [-5.899041123361331e-20], [-5.7084380307138e-20], [-5.3518957217221686e-20], [-1.2949825105628056e-20], [-5.493141011842146e-20], [-3.179764669597667e-20], [2.260842941646546e-20], [-5.733623095426625e-20], [-3.1606283631141355e-20], [1.9569312915983085e-20], [-3.9452715357840505e-20], [-2.56369476653495e-20], [1.0905165332396104e-19], [6.401019555498257e-20], [4.82051424998325e-20], [2.9627386493753215e-20], [9.296158808017243e-20], [-4.523308902127801e-20], [-6.022512046951649e-20], [1.3811229185114472e-19], [5.939903199386597e-20], [5.769258423956322e-20], [-9.484834182096614e-21], [-8.523513308521042e-20], [3.0971354656347282e-21], [1.3233310564425063e-20], [2.445895523136876e-20], [2.146020417542669e-20], [3.5786270896911594e-19], [2.909309567270358e-20], [8.341870262118079e-20], [-5.923738280759721e-20], [-1.9088391400314462e-20], [-6.332132858813636e-20], [1.6492991059394296e-20], [1.323346679170091e-19], [1.5057559662389165e-20], [6.309835898440714e-21], [4.9132628455180386e-20], [2.985043445345843e-20], [-1.9375316444119526e-21], [-1.489551562662488e-19], [5.080502528725565e-21], [5.60700953174346e-20], [1.537748662769568e-19], [-7.929696664199275e-21], [-5.253425362793986e-20], [4.815161486691237e-20], [-1.6096277176318424e-20], [2.999797956404831e-20], [1.4687310389036162e-19], [-7.893574559266137e-21], [1.7226235296751697e-19], [-8.523372429322966e-21], [4.61498119351399e-21], [-1.1693649563476849e-20], [-6.439642427755948e-20], [-1.0254057221808377e-20], [1.0558314284385841e-20], [3.8033641780566037e-20], [1.8705213310143126e-21], [1.6546252766672188e-19], [6.114570786780265e-20], [2.9542270901191216e-20], [3.3793747897636204e-19], [-7.669046850993245e-19], [-2.1278701038869524e-20], [1.3848536646327747e-20], [5.480219485360755e-22], [-2.5225640183693178e-20], [-5.211843704259284e-20], [5.625522867828162e-20], [1.1234118421460964e-20], [-2.6267659957724114e-20], [3.6019589467144393e-20], [1.3407326262410205e-20], [-8.603226377707304e-20], [4.269012902313686e-20], [3.76683368500776e-19], [8.193047545222718e-20], [-5.639826872414864e-21], [3.566911045666626e-20], [6.232146756036435e-20], [1.554273275715934e-19], [2.5181876452590923e-22], [-5.574711359997532e-20], [5.032748115649043e-20], [-4.4896849795798005e-20], [4.706439904281079e-20], [-1.9340901206993345e-20], [-2.2185993770630885e-20], [1.1202893161130654e-20], [-1.3216784885191188e-19], [4.732090904323319e-20], [1.6058338989888077e-19], [8.937708490620485e-20], [-6.70694923543544e-21], [-1.7219276639848595e-20], [-1.4494358878930804e-19], [-3.9400047217275605e-20], [3.663108273497422e-20], [-1.2998970135330077e-19], [3.9175839266008253e-20], [-7.766269007301783e-19], [4.7238365465388346e-20], [3.363880533667766e-20], [1.6213403042999092e-19], [1.1285966651555413e-20], [1.4474975710733214e-20], [-2.241819726262387e-19], [1.5774719437358958e-19], [1.5764835921508656e-19], [1.9018321770730405e-20], [-1.5220134903203073e-19], [-3.976450105646191e-20], [-1.1399598326382898e-19], [7.237523786024465e-19], [-5.968271616988045e-20], [7.671223369980025e-19], [-1.6491443326920027e-20], [5.933384628418767e-20], [2.1528745459582086e-20], [-5.1474056883065497e-20], [5.560712620599779e-20], [-1.1613538252062082e-19], [-1.9422591754831492e-20], [-4.216464638314121e-20], [3.5987623460113194e-21], [6.006658872018129e-19], [6.413912587061574e-20], [8.368895415952923e-19], [-3.31997630706938e-20], [4.516989694612293e-20], [-2.6996506243785633e-20], [-1.1439091030753477e-19], [2.3710960097828583e-22], [-1.9969438919085738e-20]]"
